{"sizes":[25,12,3],"layers":[{"0":{},"1":{},"2":{},"3":{},"4":{},"5":{},"6":{},"7":{},"8":{},"9":{},"10":{},"11":{},"12":{},"13":{},"14":{},"15":{},"16":{},"17":{},"18":{},"19":{},"20":{},"21":{},"22":{},"23":{},"24":{}},{"0":{"bias":0.17154864966869354,"weights":{"0":-1.2163946628570557,"1":0.06991681456565857,"2":0.3426101803779602,"3":-8.794669151306152,"4":-4.682992935180664,"5":4.3637824058532715,"6":1.6607930660247803,"7":1.7148592472076416,"8":-2.1020328998565674,"9":2.118497848510742,"10":2.4363908767700195,"11":-0.3762267827987671,"12":-3.387301206588745,"13":-0.1574276238679886,"14":0.21768100559711456,"15":0.2721526324748993,"16":0.12497571855783463,"17":0.19392429292201996,"18":0.3795284330844879,"19":0.17278869450092316,"20":0.20327593386173248,"21":0.11323162913322449,"22":0.21336762607097626,"23":0.44510945677757263,"24":0.325085312128067}},"1":{"bias":-1.4940301179885864,"weights":{"0":7.254700183868408,"1":-1.9790451526641846,"2":1.7629314661026,"3":-0.6378322839736938,"4":1.0894700288772583,"5":0.4310815930366516,"6":-0.23446345329284668,"7":-1.487558126449585,"8":-3.3328137397766113,"9":-10.769774436950684,"10":-7.093223571777344,"11":-1.9591255187988281,"12":-3.829179048538208,"13":-2.1828529834747314,"14":-1.8147010803222656,"15":-1.511735200881958,"16":-1.4555466175079346,"17":-1.642676830291748,"18":-1.7751104831695557,"19":-1.8319063186645508,"20":-1.81199312210083,"21":-1.4890620708465576,"22":-1.6356878280639648,"23":-1.6657688617706299,"24":-1.5167312622070312}},"2":{"bias":0.7385455965995789,"weights":{"0":-4.033614635467529,"1":-3.5661163330078125,"2":-4.324737071990967,"3":6.304572105407715,"4":1.5849649906158447,"5":4.59605073928833,"6":-2.0788111686706543,"7":4.316925525665283,"8":10.280293464660645,"9":-2.670884847640991,"10":5.547735214233398,"11":2.1347484588623047,"12":1.6822766065597534,"13":0.9658052921295166,"14":0.9935603141784668,"15":0.937848687171936,"16":0.8231194019317627,"17":0.734856367111206,"18":0.8716127872467041,"19":0.7787092924118042,"20":0.9906601905822754,"21":0.9061157703399658,"22":0.6580318212509155,"23":0.8140436410903931,"24":0.742194652557373}},"3":{"bias":0.5338913202285767,"weights":{"0":1.3515743017196655,"1":1.5162392854690552,"2":-0.5165647864341736,"3":2.812276601791382,"4":-2.214937210083008,"5":-2.17303729057312,"6":-3.3889057636260986,"7":-4.061729431152344,"8":0.5642688870429993,"9":-1.8934047222137451,"10":-9.637505531311035,"11":-1.3616886138916016,"12":0.12207867950201035,"13":0.5376472473144531,"14":0.6549687385559082,"15":0.6421073079109192,"16":0.9745317697525024,"17":0.7831768989562988,"18":0.7670305967330933,"19":0.9615015983581543,"20":0.7523306608200073,"21":0.6313201189041138,"22":0.6732244491577148,"23":0.7108254432678223,"24":0.672875165939331}},"4":{"bias":-0.49708622694015503,"weights":{"0":-10.442694664001465,"1":-7.357519149780273,"2":1.1733461618423462,"3":-3.9014768600463867,"4":-1.5580434799194336,"5":6.513823509216309,"6":-6.937839508056641,"7":13.891676902770996,"8":1.429708480834961,"9":4.875338077545166,"10":-0.13194409012794495,"11":4.751046180725098,"12":-1.4055474996566772,"13":1.1435928344726562,"14":-0.699383556842804,"15":1.2085647583007812,"16":-0.3946234881877899,"17":-0.5765721201896667,"18":-0.6032363772392273,"19":-0.47186514735221863,"20":-0.42179086804389954,"21":-0.5422330498695374,"22":-0.7520632147789001,"23":-0.3980257213115692,"24":-0.6725694537162781}},"5":{"bias":-2.506202459335327,"weights":{"0":0.7622984051704407,"1":-0.34861621260643005,"2":-0.2982592284679413,"3":1.3231977224349976,"4":-0.6767147779464722,"5":2.65983247756958,"6":-5.329934120178223,"7":0.8377760052680969,"8":1.6279865503311157,"9":4.942782878875732,"10":1.11567223072052,"11":-0.4454617500305176,"12":6.269351005554199,"13":0.858437180519104,"14":-2.4804680347442627,"15":-2.9272549152374268,"16":-2.393498182296753,"17":-2.7041194438934326,"18":-2.7564127445220947,"19":-2.3911168575286865,"20":-2.7742373943328857,"21":-2.6076462268829346,"22":-2.4705212116241455,"23":-2.614333391189575,"24":-2.4063565731048584}},"6":{"bias":-1.7009798288345337,"weights":{"0":0.28129470348358154,"1":0.8300270438194275,"2":15.4326810836792,"3":-12.444608688354492,"4":2.3480241298675537,"5":0.9899002909660339,"6":-3.8206393718719482,"7":5.868039608001709,"8":-5.499972343444824,"9":6.566171646118164,"10":7.778486728668213,"11":3.468658208847046,"12":-0.8269016146659851,"13":-1.2360669374465942,"14":0.25225532054901123,"15":-2.00961971282959,"16":-1.7763313055038452,"17":-1.7650376558303833,"18":-1.6213515996932983,"19":-1.7588449716567993,"20":-1.8186646699905396,"21":-1.5554579496383667,"22":-1.7463620901107788,"23":-1.9285997152328491,"24":-1.6139923334121704}},"7":{"bias":-0.8973379135131836,"weights":{"0":4.662788391113281,"1":10.83580493927002,"2":0.6837648153305054,"3":7.504164695739746,"4":-0.5799664258956909,"5":-3.6655099391937256,"6":-1.743829607963562,"7":0.08644535392522812,"8":2.1401801109313965,"9":0.5426735281944275,"10":-2.767953395843506,"11":-2.3456668853759766,"12":-9.537271499633789,"13":-3.679260730743408,"14":-0.9084658026695251,"15":-0.3869766891002655,"16":-0.8481772541999817,"17":-0.9321239590644836,"18":-1.045624017715454,"19":-0.7919979691505432,"20":-0.7739073634147644,"21":-0.731645405292511,"22":-0.7030960917472839,"23":-0.7767289280891418,"24":-0.7152535319328308}},"8":{"bias":0.2162250429391861,"weights":{"0":-2.1079447269439697,"1":9.345874786376953,"2":-2.113233804702759,"3":-3.1153175830841064,"4":-7.805631160736084,"5":-1.502525806427002,"6":9.659966468811035,"7":1.0891194343566895,"8":0.012988859787583351,"9":5.127656936645508,"10":2.721062421798706,"11":0.9459546804428101,"12":2.4965505599975586,"13":0.15529820322990417,"14":-0.46794018149375916,"15":0.19326621294021606,"16":0.08159942179918289,"17":0.19939398765563965,"18":0.18811249732971191,"19":0.03012748621404171,"20":-0.06232354789972305,"21":-0.1266477257013321,"22":-0.0564558207988739,"23":-0.02752293087542057,"24":-0.001039164955727756}},"9":{"bias":1.3177745342254639,"weights":{"0":-6.975619316101074,"1":-1.2294642925262451,"2":-0.9425662159919739,"3":1.8946568965911865,"4":-4.076918601989746,"5":-7.942254066467285,"6":-2.677500009536743,"7":1.386923909187317,"8":-2.813598871231079,"9":4.90435791015625,"10":2.7848079204559326,"11":1.5231877565383911,"12":0.94561368227005,"13":0.8090110421180725,"14":1.2630484104156494,"15":2.2659847736358643,"16":1.4885188341140747,"17":1.4596682786941528,"18":1.5901163816452026,"19":1.4658693075180054,"20":1.3633188009262085,"21":1.6301473379135132,"22":1.604364275932312,"23":1.3445603847503662,"24":1.5960732698440552}},"10":{"bias":-1.2248893976211548,"weights":{"0":5.809078693389893,"1":1.4633972644805908,"2":-0.36828726530075073,"3":-2.4608020782470703,"4":-1.8292042016983032,"5":0.7872291803359985,"6":-4.763058185577393,"7":-1.334770679473877,"8":0.14203138649463654,"9":1.6582927703857422,"10":2.334160804748535,"11":-0.5111281871795654,"12":-1.9921455383300781,"13":-1.2185157537460327,"14":-1.5284382104873657,"15":-1.1630942821502686,"16":-1.2534935474395752,"17":-1.2329208850860596,"18":-1.3548263311386108,"19":-1.3310211896896362,"20":-1.1831039190292358,"21":-1.5052237510681152,"22":-1.2121505737304688,"23":-1.387299656867981,"24":-1.3862946033477783}},"11":{"bias":-2.116286277770996,"weights":{"0":1.7457462549209595,"1":4.5835490226745605,"2":-1.2373250722885132,"3":11.278802871704102,"4":-10.069518089294434,"5":2.812682867050171,"6":-2.2291252613067627,"7":0.7780129313468933,"8":3.6305017471313477,"9":11.994544982910156,"10":1.747315526008606,"11":4.13846492767334,"12":-1.451659083366394,"13":-2.0435478687286377,"14":-2.2981786727905273,"15":-2.3527517318725586,"16":-2.2076101303100586,"17":-2.258902072906494,"18":-2.0187878608703613,"19":-2.031487464904785,"20":-1.9350224733352661,"21":-2.058492660522461,"22":-2.169088840484619,"23":-2.246091365814209,"24":-2.2290172576904297}}},{"Predict":{"bias":-11.735273361206055,"weights":{"0":4.414939880371094,"1":-11.053417205810547,"2":1.578714370727539,"3":-10.824399948120117,"4":12.18996810913086,"5":-16.125370025634766,"6":-12.203094482421875,"7":15.88641357421875,"8":12.378634452819824,"9":7.558113098144531,"10":13.128220558166504,"11":-12.613007545471191}},"UserWillGive":{"bias":9.539315223693848,"weights":{"0":12.693303108215332,"1":8.340996742248535,"2":-14.472983360290527,"3":13.290301322937012,"4":3.58998703956604,"5":-7.3241777420043945,"6":-2.3156588077545166,"7":13.17666244506836,"8":-9.971407890319824,"9":-4.014500141143799,"10":-11.378093719482422,"11":-4.7059783935546875}},"NeedNamesOfVariables":{"bias":-9.48116397857666,"weights":{"0":-9.729844093322754,"1":9.283687591552734,"2":10.474108695983887,"3":-13.338929176330566,"4":-9.559624671936035,"5":17.403932571411133,"6":9.84346866607666,"7":-20.947240829467773,"8":-3.0207176208496094,"9":-4.398508548736572,"10":-8.268546104431152,"11":16.818634033203125}}}],"outputLookup":true,"inputLookup":false,"activation":"sigmoid","trainOpts":{"iterations":50000,"errorThresh":0.005,"log":true,"logPeriod":50,"learningRate":0.01,"momentum":0.1,"callbackPeriod":10,"beta1":0.9,"beta2":0.999,"epsilon":1e-8}}