{"sizes":[80,40,29],"layers":[{"0":{},"1":{},"2":{},"3":{},"4":{},"5":{},"6":{},"7":{},"8":{},"9":{},"10":{},"11":{},"12":{},"13":{},"14":{},"15":{},"16":{},"17":{},"18":{},"19":{},"20":{},"21":{},"22":{},"23":{},"24":{},"25":{},"26":{},"27":{},"28":{},"29":{},"30":{},"31":{},"32":{},"33":{},"34":{},"35":{},"36":{},"37":{},"38":{},"39":{},"40":{},"41":{},"42":{},"43":{},"44":{},"45":{},"46":{},"47":{},"48":{},"49":{},"50":{},"51":{},"52":{},"53":{},"54":{},"55":{},"56":{},"57":{},"58":{},"59":{},"60":{},"61":{},"62":{},"63":{},"64":{},"65":{},"66":{},"67":{},"68":{},"69":{},"70":{},"71":{},"72":{},"73":{},"74":{},"75":{},"76":{},"77":{},"78":{},"79":{}},{"0":{"bias":-0.026264337822794914,"weights":{"0":-0.22008566558361053,"1":-0.002580584492534399,"2":-0.04152108356356621,"3":-0.039829421788454056,"4":-0.10334218293428421,"5":0.7104398012161255,"6":-0.039930060505867004,"7":-2.379014253616333,"8":-1.6456689834594727,"9":0.5556110143661499,"10":-0.7194567322731018,"11":-0.48161643743515015,"12":0.8825140595436096,"13":0.6303691864013672,"14":-0.27551883459091187,"15":0.4645357131958008,"16":-1.0061074495315552,"17":0.33890825510025024,"18":-0.38573896884918213,"19":-0.2842937409877777,"20":-0.18476782739162445,"21":1.234046459197998,"22":1.4728572368621826,"23":0.23577232658863068,"24":1.4483907222747803,"25":-0.19681993126869202,"26":2.7449028491973877,"27":-0.5989046096801758,"28":-0.02630874514579773,"29":1.5510938167572021,"30":0.41989344358444214,"31":-1.1887248754501343,"32":0.5513948202133179,"33":-1.1249581575393677,"34":0.6220511794090271,"35":0.2794903814792633,"36":-0.37675076723098755,"37":0.9732239842414856,"38":1.181555151939392,"39":0.12938979268074036,"40":-0.9369915723800659,"41":-0.36265257000923157,"42":-0.054332319647073746,"43":-0.6238255500793457,"44":0.21697396039962769,"45":-0.062059249728918076,"46":0.5404871106147766,"47":-1.299233078956604,"48":0.4412653148174286,"49":1.6299042701721191,"50":-1.2905372381210327,"51":0.9096111059188843,"52":-0.4491649270057678,"53":0.0672387182712555,"54":-0.18249393999576569,"55":-0.015741651877760887,"56":-0.19650524854660034,"57":0.06630522012710571,"58":-0.10668490827083588,"59":0.0499139130115509,"60":-0.2576010227203369,"61":0.12283703684806824,"62":-0.18906450271606445,"63":-0.1582278609275818,"64":-0.14781032502651215,"65":-0.24427112936973572,"66":-0.18724194169044495,"67":-0.22034749388694763,"68":0.054284751415252686,"69":-0.048736147582530975,"70":-0.24649818241596222,"71":-0.02326464094221592,"72":0.06601037830114365,"73":-0.0812557116150856,"74":0.10019633919000626,"75":-0.043198294937610626,"76":0.08442796021699905,"77":0.10727509111166,"78":0.028460947796702385,"79":-0.047510839998722076}},"1":{"bias":0.17675311863422394,"weights":{"0":-0.020016154274344444,"1":-0.16089878976345062,"2":-0.11174352467060089,"3":-0.10571969300508499,"4":-0.06137258559465408,"5":0.39742061495780945,"6":-1.6686111688613892,"7":1.7297931909561157,"8":-1.2821661233901978,"9":0.534207820892334,"10":-0.8554153442382812,"11":0.9684184789657593,"12":-0.057762373238801956,"13":0.4949329197406769,"14":-0.3790843188762665,"15":-0.3088062107563019,"16":0.6756078004837036,"17":0.3926548361778259,"18":-0.5559131503105164,"19":0.42424923181533813,"20":-2.970104217529297,"21":0.14311575889587402,"22":0.21554936468601227,"23":-2.9766836166381836,"24":-1.3050453662872314,"25":0.04924735799431801,"26":-0.28701746463775635,"27":-2.016322612762451,"28":0.8230718374252319,"29":1.1945048570632935,"30":-0.4875008165836334,"31":-0.7983123660087585,"32":0.40534138679504395,"33":0.13227982819080353,"34":1.061588168144226,"35":-0.10291869193315506,"36":0.2993438243865967,"37":-0.5727275609970093,"38":0.757343053817749,"39":0.15246428549289703,"40":-0.047866687178611755,"41":0.19178034365177155,"42":-0.2641896605491638,"43":-0.20072326064109802,"44":0.6397953629493713,"45":-0.1805744469165802,"46":-0.1956544667482376,"47":-1.3384524583816528,"48":0.6343072652816772,"49":0.8529441356658936,"50":0.0364101268351078,"51":0.7597920298576355,"52":0.5699330568313599,"53":0.7416086792945862,"54":-0.04166565090417862,"55":-0.09544484317302704,"56":-0.17162206768989563,"57":-0.1946323961019516,"58":-0.12916699051856995,"59":0.1479649692773819,"60":-0.157682403922081,"61":0.18767692148685455,"62":0.012753843329846859,"63":-0.031341638416051865,"64":0.06024797633290291,"65":-0.18358998000621796,"66":0.1773635596036911,"67":0.06790059804916382,"68":-0.01980360597372055,"69":-0.1297427862882614,"70":-0.1724761575460434,"71":-0.04437601938843727,"72":0.16614986956119537,"73":-0.05375627055764198,"74":0.10264135152101517,"75":0.0170267466455698,"76":0.11300080269575119,"77":-0.07892312854528427,"78":-0.1780204027891159,"79":0.16789816319942474}},"2":{"bias":0.08268405497074127,"weights":{"0":0.05692416802048683,"1":-0.05758064612746239,"2":0.07309785485267639,"3":-0.02064581774175167,"4":-0.3647192716598511,"5":1.0397261381149292,"6":1.1176806688308716,"7":-2.606374979019165,"8":-0.4041133224964142,"9":1.1016218662261963,"10":0.698448121547699,"11":0.6416867971420288,"12":0.0966297835111618,"13":0.17236328125,"14":0.27462801337242126,"15":1.4859741926193237,"16":1.4941880702972412,"17":0.2160099893808365,"18":-0.38108664751052856,"19":0.0925731211900711,"20":-0.7303994297981262,"21":0.46041935682296753,"22":0.8975799083709717,"23":0.8263441324234009,"24":2.00091814994812,"25":0.6141625642776489,"26":-2.1888914108276367,"27":-1.0443286895751953,"28":0.23538625240325928,"29":-1.9075465202331543,"30":-0.68993079662323,"31":-0.4593789577484131,"32":0.23938508331775665,"33":0.26333191990852356,"34":0.4634331166744232,"35":-0.07722087949514389,"36":1.8798222541809082,"37":0.9656818509101868,"38":-0.3932739794254303,"39":-1.2885067462921143,"40":-0.046158790588378906,"41":-0.9152325391769409,"42":0.13699647784233093,"43":-0.6336445808410645,"44":0.3398452401161194,"45":0.04266205057501793,"46":0.1890670210123062,"47":0.20111601054668427,"48":-0.11997643113136292,"49":1.2663607597351074,"50":-0.5008319616317749,"51":0.6858904957771301,"52":-0.15898342430591583,"53":0.2502613067626953,"54":-0.22607488930225372,"55":-0.22712764143943787,"56":-0.06427068263292313,"57":0.12729300558567047,"58":0.05336298421025276,"59":0.037197235971689224,"60":0.02616715244948864,"61":0.08868082612752914,"62":-0.13036003708839417,"63":-0.03696854040026665,"64":0.10290596634149551,"65":0.10853473097085953,"66":-0.20996814966201782,"67":0.12290165573358536,"68":-0.10689377039670944,"69":-0.1067356988787651,"70":0.013624217361211777,"71":-0.13477706909179688,"72":-0.1551063358783722,"73":0.029109710827469826,"74":-0.09303341060876846,"75":0.0791848823428154,"76":-0.22133329510688782,"77":-0.23451843857765198,"78":-0.013437401503324509,"79":0.03777502104640007}},"3":{"bias":-0.11600098013877869,"weights":{"0":0.022021451964974403,"1":0.1458544284105301,"2":-0.08955147862434387,"3":0.19172529876232147,"4":0.22591693699359894,"5":2.0061099529266357,"6":0.40594354271888733,"7":0.09637472033500671,"8":-0.1795162409543991,"9":-0.07614021748304367,"10":1.8305474519729614,"11":0.34449124336242676,"12":2.6950533390045166,"13":-0.1174747422337532,"14":-0.3229704201221466,"15":1.0804165601730347,"16":-1.1971300840377808,"17":0.9957113862037659,"18":-0.9581530094146729,"19":-0.2089332789182663,"20":0.6937128305435181,"21":0.09911533445119858,"22":-1.088030457496643,"23":0.32926028966903687,"24":0.7997297644615173,"25":0.009520594030618668,"26":-3.6016488075256348,"27":0.15080925822257996,"28":-0.37649452686309814,"29":0.5518128275871277,"30":-1.6155023574829102,"31":-0.8678057193756104,"32":0.5858054757118225,"33":-0.06271912157535553,"34":0.27887243032455444,"35":-1.8434385061264038,"36":-0.1617092788219452,"37":0.055997446179389954,"38":0.7807952761650085,"39":0.7776679992675781,"40":-1.1189525127410889,"41":0.2938520014286041,"42":-1.5766509771347046,"43":0.018605327233672142,"44":0.27056989073753357,"45":0.0916719064116478,"46":-0.6509667038917542,"47":0.2504529058933258,"48":-0.39999106526374817,"49":-0.6721450090408325,"50":0.6759946346282959,"51":-0.463823527097702,"52":-0.20500020682811737,"53":0.022326122969388962,"54":0.13842462003231049,"55":0.0425303615629673,"56":0.125531405210495,"57":0.14298006892204285,"58":0.11016225069761276,"59":0.21061156690120697,"60":0.17798566818237305,"61":-0.1533830761909485,"62":0.06561904400587082,"63":-0.2617248296737671,"64":-0.13139894604682922,"65":0.024202954024076462,"66":-0.12699507176876068,"67":-0.05717239901423454,"68":-0.017695168033242226,"69":-0.09039982408285141,"70":0.14388811588287354,"71":0.1661609411239624,"72":0.10049081593751907,"73":0.0019124746322631836,"74":-0.12210575491189957,"75":0.18808653950691223,"76":0.1361110806465149,"77":-0.06779002398252487,"78":0.2047766149044037,"79":-0.12126179784536362}},"4":{"bias":-0.09201386570930481,"weights":{"0":-0.0601639561355114,"1":-0.28149011731147766,"2":-0.16066327691078186,"3":-0.14094509184360504,"4":-0.05572099611163139,"5":0.9191233515739441,"6":0.5420349836349487,"7":-0.18736177682876587,"8":-0.31605252623558044,"9":0.5561467409133911,"10":0.25870880484580994,"11":0.780415952205658,"12":0.33942562341690063,"13":0.8166052103042603,"14":0.6315568089485168,"15":0.012419182807207108,"16":-0.8039191365242004,"17":0.1391877979040146,"18":0.24346406757831573,"19":-0.15181604027748108,"20":-0.7698177099227905,"21":0.1594473123550415,"22":0.43149060010910034,"23":0.37684303522109985,"24":-0.01576976664364338,"25":-0.7471552491188049,"26":0.33498838543891907,"27":-0.7737881541252136,"28":0.9187306761741638,"29":-1.2812988758087158,"30":0.9263957738876343,"31":-0.07092458009719849,"32":0.5718427896499634,"33":-0.07977883517742157,"34":0.0012690192088484764,"35":2.3476991653442383,"36":-1.2480348348617554,"37":-0.8525252938270569,"38":0.3837985694408417,"39":-0.4006877541542053,"40":0.6672779321670532,"41":0.2093079686164856,"42":-0.6413333415985107,"43":0.6989283561706543,"44":0.32473161816596985,"45":0.15970270335674286,"46":0.20708897709846497,"47":0.8135809302330017,"48":-0.4001716375350952,"49":-1.617110252380371,"50":0.7248448729515076,"51":-0.34093719720840454,"52":0.4571894705295563,"53":-0.26831966638565063,"54":0.14133545756340027,"55":0.0162450410425663,"56":-0.19311568140983582,"57":0.01590178720653057,"58":-0.011687951162457466,"59":0.004460851661860943,"60":0.1310271918773651,"61":0.05493737757205963,"62":-0.34539392590522766,"63":-0.26122570037841797,"64":-0.15461264550685883,"65":0.05821293592453003,"66":0.06087328493595123,"67":-0.09741004556417465,"68":0.03800539672374725,"69":0.07676568627357483,"70":-0.1527245044708252,"71":0.019451439380645752,"72":-0.12094707787036896,"73":0.014665923081338406,"74":-0.042568180710077286,"75":-0.1923941671848297,"76":-0.06467261165380478,"77":0.10786016285419464,"78":0.054151006042957306,"79":-0.1585100293159485}},"5":{"bias":0.20365820825099945,"weights":{"0":0.28068307042121887,"1":-0.05222700908780098,"2":0.0807587131857872,"3":0.024741461500525475,"4":0.009037881158292294,"5":-0.7128567099571228,"6":-0.80739426612854,"7":-1.64602530002594,"8":0.8176527619361877,"9":-0.8495565056800842,"10":1.1434906721115112,"11":-1.3775954246520996,"12":0.4812620282173157,"13":0.09869692474603653,"14":0.139942467212677,"15":-0.061058152467012405,"16":-1.502598524093628,"17":-0.4826224446296692,"18":0.4234284460544586,"19":-0.08101332932710648,"20":3.460047960281372,"21":0.2848893404006958,"22":-0.32349762320518494,"23":-0.8398469090461731,"24":0.7912065386772156,"25":0.2980169653892517,"26":-1.2291228771209717,"27":-0.06509311497211456,"28":-0.4406033754348755,"29":-0.8118853569030762,"30":-0.3248784840106964,"31":-0.9974613785743713,"32":-0.7801353335380554,"33":1.7317016124725342,"34":1.9143072366714478,"35":0.630751371383667,"36":-0.5548825263977051,"37":0.3904362618923187,"38":-1.0599969625473022,"39":1.0716501474380493,"40":0.9968861937522888,"41":0.6813722252845764,"42":-0.20871847867965698,"43":-0.8881998658180237,"44":-0.3844710886478424,"45":0.06762920320034027,"46":0.33346956968307495,"47":0.07691144943237305,"48":0.5036229491233826,"49":-0.10351905971765518,"50":-0.35992783308029175,"51":0.800159752368927,"52":-0.5387794971466064,"53":0.4719754159450531,"54":0.135640949010849,"55":0.009410608559846878,"56":0.007647486869245768,"57":0.06810010224580765,"58":0.06999512016773224,"59":0.02934941090643406,"60":0.2079983800649643,"61":0.05250130966305733,"62":0.09071072190999985,"63":0.28724023699760437,"64":0.09821639209985733,"65":0.07929205149412155,"66":0.15689878165721893,"67":-0.1522323191165924,"68":-0.07254748791456223,"69":0.127074733376503,"70":0.07071522623300552,"71":-0.09348919242620468,"72":0.07088122516870499,"73":0.006894011050462723,"74":0.011592503637075424,"75":0.24171693623065948,"76":-0.13291670382022858,"77":0.14698074758052826,"78":0.18208731710910797,"79":-0.00008423799590673298}},"6":{"bias":0.19755589962005615,"weights":{"0":0.14107146859169006,"1":-0.09030942618846893,"2":-0.16379672288894653,"3":-0.022928491234779358,"4":0.17738798260688782,"5":0.14043889939785004,"6":-0.468587189912796,"7":0.48430895805358887,"8":-0.6244149208068848,"9":-0.613341748714447,"10":-0.421895831823349,"11":-0.4896644353866577,"12":-1.4762957096099854,"13":-0.06860554218292236,"14":-0.7834244966506958,"15":1.619376301765442,"16":-0.12219151109457016,"17":0.6256811022758484,"18":-1.1923881769180298,"19":-0.3551919758319855,"20":0.25716832280158997,"21":0.39054498076438904,"22":-0.5050637125968933,"23":0.1641629934310913,"24":-0.11555162817239761,"25":0.09942016750574112,"26":-0.12412359565496445,"27":-0.027723057195544243,"28":-0.25696685910224915,"29":1.1541777849197388,"30":1.2348934412002563,"31":0.9716425538063049,"32":-1.19586181640625,"33":0.14527425169944763,"34":-0.5726466774940491,"35":1.1730259656906128,"36":0.6391547918319702,"37":0.01812996156513691,"38":0.7849228978157043,"39":0.1594409942626953,"40":-0.14966127276420593,"41":-1.0641303062438965,"42":1.2051208019256592,"43":-0.3745456635951996,"44":0.16468383371829987,"45":0.3352701663970947,"46":-0.5157816410064697,"47":-0.4956057071685791,"48":-0.11995533108711243,"49":-0.0685262605547905,"50":0.5646901726722717,"51":0.44780775904655457,"52":0.3409937024116516,"53":0.1174108162522316,"54":-0.182085320353508,"55":0.35495781898498535,"56":-0.02279442362487316,"57":0.12920966744422913,"58":0.05556250363588333,"59":-0.06511254608631134,"60":0.06968215107917786,"61":-0.12833760678768158,"62":0.22662000358104706,"63":0.08413293957710266,"64":-0.12703628838062286,"65":0.08785094320774078,"66":0.1938835233449936,"67":-0.11709623038768768,"68":0.18136142194271088,"69":-0.0005584666505455971,"70":0.15439389646053314,"71":-0.052384376525878906,"72":-0.10828006267547607,"73":0.11106906831264496,"74":0.13623447716236115,"75":0.0369420200586319,"76":0.16891057789325714,"77":0.06830710172653198,"78":0.13486714661121368,"79":0.10693268477916718}},"7":{"bias":0.12238028645515442,"weights":{"0":0.2743154764175415,"1":-0.04905892163515091,"2":0.08409303426742554,"3":-0.05938298627734184,"4":-0.05732899159193039,"5":-1.4635214805603027,"6":3.674213409423828,"7":0.25528690218925476,"8":1.5087196826934814,"9":0.24869133532047272,"10":-0.844597578048706,"11":0.7574439644813538,"12":-0.24776320159435272,"13":0.46932944655418396,"14":-0.21739213168621063,"15":-0.14438576996326447,"16":0.5096352696418762,"17":0.1745469868183136,"18":0.3813266456127167,"19":-0.18977691233158112,"20":1.8875433206558228,"21":0.5101469159126282,"22":-1.094840407371521,"23":1.2656223773956299,"24":0.245347797870636,"25":-0.15112459659576416,"26":-0.23836785554885864,"27":0.19432871043682098,"28":-0.7594915628433228,"29":-0.4885571599006653,"30":-1.109673261642456,"31":-0.3085726201534271,"32":-0.6766670346260071,"33":0.8981439471244812,"34":-2.079305648803711,"35":-0.913384735584259,"36":1.5126863718032837,"37":-0.6589454412460327,"38":-0.7580310106277466,"39":-0.05617043003439903,"40":-0.29705384373664856,"41":-0.3607105016708374,"42":0.48513051867485046,"43":0.473023921251297,"44":-0.03453092649579048,"45":0.9304599761962891,"46":-0.4944288730621338,"47":-1.4105654954910278,"48":0.5876426100730896,"49":-0.4955039918422699,"50":-0.41021057963371277,"51":-0.6394802927970886,"52":-0.1754862666130066,"53":-0.038943130522966385,"54":0.2543310225009918,"55":-0.03153064846992493,"56":-0.0324188731610775,"57":-0.14755213260650635,"58":-0.007597215473651886,"59":0.19550821185112,"60":0.10415679961442947,"61":0.2170761525630951,"62":0.05499459430575371,"63":0.14705851674079895,"64":-0.013197735883295536,"65":0.02268579602241516,"66":0.19564548134803772,"67":0.06900755316019058,"68":-0.07286431640386581,"69":-0.04402410611510277,"70":0.006904476787894964,"71":0.18151098489761353,"72":0.10925575345754623,"73":0.1271035522222519,"74":0.04075178876519203,"75":-0.10107959061861038,"76":-0.11084664613008499,"77":-0.09694121032953262,"78":-0.15128973126411438,"79":-0.14911723136901855}},"8":{"bias":-0.05603151023387909,"weights":{"0":-0.16951431334018707,"1":-0.14948825538158417,"2":-0.18622641265392303,"3":-0.006992096547037363,"4":-0.29961854219436646,"5":1.965401291847229,"6":1.4941767454147339,"7":-1.8751212358474731,"8":0.1359778493642807,"9":-1.1398494243621826,"10":2.063124418258667,"11":-0.605320155620575,"12":-1.6489322185516357,"13":0.051847439259290695,"14":-0.03607650473713875,"15":-0.1996517777442932,"16":-0.00982423685491085,"17":0.3711952567100525,"18":-1.0225554704666138,"19":0.1845298409461975,"20":-1.491551399230957,"21":0.4528759717941284,"22":0.6646448969841003,"23":0.5491228103637695,"24":-1.0156980752944946,"25":-0.06600256264209747,"26":-0.11755320429801941,"27":-1.938604474067688,"28":-0.28280195593833923,"29":0.27586859464645386,"30":0.456112265586853,"31":1.3151829242706299,"32":1.9519751071929932,"33":1.5525494813919067,"34":-0.2883600890636444,"35":-0.8068190813064575,"36":-0.2805616855621338,"37":0.15317077934741974,"38":0.6771577596664429,"39":0.8178534507751465,"40":0.16407832503318787,"41":0.3444734811782837,"42":-0.1533590406179428,"43":-0.4049505591392517,"44":0.35928604006767273,"45":0.6608986258506775,"46":-0.08287439495325089,"47":2.1490464210510254,"48":-0.34863990545272827,"49":0.568364679813385,"50":0.4653749167919159,"51":-1.1460425853729248,"52":0.1381222903728485,"53":-0.22038285434246063,"54":-0.23505263030529022,"55":-0.2583775818347931,"56":-0.07391880452632904,"57":0.15536610782146454,"58":0.12863604724407196,"59":-0.16577987372875214,"60":0.03380407765507698,"61":-0.013243705034255981,"62":-0.24756982922554016,"63":-0.13518770039081573,"64":-0.20043909549713135,"65":0.1404106765985489,"66":-0.18379010260105133,"67":0.08352535963058472,"68":-0.16839919984340668,"69":-0.07714013010263443,"70":0.10180924087762833,"71":0.0461895614862442,"72":0.030050931498408318,"73":0.10253507643938065,"74":-0.03864714503288269,"75":0.05097386986017227,"76":0.08956987410783768,"77":0.09613940864801407,"78":0.06336870044469833,"79":-0.22204650938510895}},"9":{"bias":0.06901413947343826,"weights":{"0":0.3842414319515228,"1":0.1177414059638977,"2":-0.06022493168711662,"3":0.0939873680472374,"4":0.5709835886955261,"5":0.48806440830230713,"6":-0.2832002341747284,"7":-2.060394287109375,"8":-1.5219496488571167,"9":1.127694845199585,"10":-1.2470110654830933,"11":-1.5218534469604492,"12":-0.11554312705993652,"13":-1.591564655303955,"14":0.32871294021606445,"15":-1.8120172023773193,"16":0.3035392761230469,"17":-0.21646244823932648,"18":0.316214919090271,"19":0.3557939827442169,"20":0.009907073341310024,"21":-0.0004779527662321925,"22":-0.313063383102417,"23":-1.4510964155197144,"24":-1.1387219429016113,"25":-0.2345009297132492,"26":1.5134109258651733,"27":0.790961503982544,"28":-0.7401593327522278,"29":0.11920943111181259,"30":-1.476733684539795,"31":-0.09976918995380402,"32":0.8124524354934692,"33":-0.2890194058418274,"34":-0.36667704582214355,"35":0.09691397845745087,"36":-1.2199498414993286,"37":-0.5355606079101562,"38":1.0734249353408813,"39":-0.2880202531814575,"40":0.31016862392425537,"41":0.4254434108734131,"42":0.1349930614233017,"43":-0.3927616477012634,"44":-0.13804775476455688,"45":-0.04067183658480644,"46":0.5932204723358154,"47":-0.2398771494626999,"48":0.6739959120750427,"49":-0.17495687305927277,"50":0.25946903228759766,"51":-1.1190860271453857,"52":-0.09826792031526566,"53":-0.07773860543966293,"54":0.22139163315296173,"55":0.07380151003599167,"56":-0.035568542778491974,"57":0.11226604878902435,"58":0.23656441271305084,"59":0.20554740726947784,"60":0.3263397514820099,"61":0.13410291075706482,"62":0.16879092156887054,"63":-0.03163677826523781,"64":0.10111472755670547,"65":0.03479017689824104,"66":0.20072342455387115,"67":0.15742455422878265,"68":0.08793959021568298,"69":-0.01928825117647648,"70":0.05178683251142502,"71":0.050278641283512115,"72":0.058598943054676056,"73":0.08842058479785919,"74":-0.035638682544231415,"75":0.004839832428842783,"76":0.09749386459589005,"77":-0.030796991661190987,"78":0.14272882044315338,"79":0.22598989307880402}},"10":{"bias":-0.1463494747877121,"weights":{"0":0.15907222032546997,"1":0.17762532830238342,"2":0.13387520611286163,"3":0.09287741780281067,"4":0.25056323409080505,"5":0.3992895483970642,"6":0.8898782730102539,"7":0.010552085004746914,"8":0.45335012674331665,"9":0.8427116870880127,"10":0.9318954348564148,"11":-0.039377372711896896,"12":-1.1515475511550903,"13":-0.005526889115571976,"14":-0.09285665303468704,"15":-0.279501736164093,"16":1.5527303218841553,"17":-1.247892141342163,"18":0.235787034034729,"19":-1.4138531684875488,"20":-0.10104082524776459,"21":-0.1202138140797615,"22":-0.27873241901397705,"23":-1.2108083963394165,"24":0.7105162739753723,"25":-0.43326807022094727,"26":-1.6389540433883667,"27":1.9802329540252686,"28":0.08726368844509125,"29":-2.264141798019409,"30":0.1875477433204651,"31":0.11654182523488998,"32":-0.3979482352733612,"33":-0.477910578250885,"34":-1.7654800415039062,"35":0.48571503162384033,"36":0.1808491349220276,"37":-1.5819759368896484,"38":-0.17012175917625427,"39":-0.23223476111888885,"40":0.04266635328531265,"41":-2.166884183883667,"42":-0.9399359822273254,"43":1.5133552551269531,"44":0.5611107349395752,"45":-0.0985017940402031,"46":0.3588051199913025,"47":0.5823063254356384,"48":0.6641688346862793,"49":2.423356056213379,"50":-0.08621673285961151,"51":0.31201180815696716,"52":0.2908961772918701,"53":0.06775766611099243,"54":0.015972813591361046,"55":-0.2455301284790039,"56":0.2406604140996933,"57":0.17244401574134827,"58":0.13883300125598907,"59":0.24315297603607178,"60":-0.14220473170280457,"61":0.1012338250875473,"62":-0.15203872323036194,"63":-0.55452561378479,"64":-0.23595522344112396,"65":0.24255219101905823,"66":0.15383365750312805,"67":0.3139859139919281,"68":0.027388013899326324,"69":0.22581365704536438,"70":0.11486509442329407,"71":-0.05807095021009445,"72":-0.01445099338889122,"73":0.007126476615667343,"74":0.17696267366409302,"75":-0.04812878742814064,"76":0.18110740184783936,"77":0.0007813084521330893,"78":0.11295662820339203,"79":0.11159759759902954}},"11":{"bias":-0.18018724024295807,"weights":{"0":0.01346390601247549,"1":-0.1162325069308281,"2":0.127061665058136,"3":0.14980341494083405,"4":-0.11797796189785004,"5":-0.08439948409795761,"6":0.7149621844291687,"7":1.1091127395629883,"8":-0.20639236271381378,"9":-0.1043478399515152,"10":0.498026043176651,"11":1.8026665449142456,"12":-0.5675157308578491,"13":2.0430617332458496,"14":0.6666122674942017,"15":-0.14639122784137726,"16":-0.70789635181427,"17":-0.19813647866249084,"18":-0.17446954548358917,"19":-0.09671684354543686,"20":0.7653093338012695,"21":0.02775709144771099,"22":2.538567543029785,"23":-0.18322251737117767,"24":-0.40026628971099854,"25":-1.4470551013946533,"26":-1.6029516458511353,"27":0.2834509611129761,"28":0.1688082218170166,"29":0.7704781293869019,"30":-2.1576764583587646,"31":0.3241960406303406,"32":-0.7830935120582581,"33":-0.39173245429992676,"34":0.36212158203125,"35":0.3230636715888977,"36":1.0430400371551514,"37":0.31486767530441284,"38":0.7454890608787537,"39":-0.48277175426483154,"40":0.1961207091808319,"41":-0.1749732941389084,"42":-0.2652072608470917,"43":-0.7126687169075012,"44":0.6445310115814209,"45":-0.6426904201507568,"46":-0.291998952627182,"47":-0.06084905192255974,"48":-0.5569363236427307,"49":-0.16064956784248352,"50":0.531876266002655,"51":1.415953278541565,"52":0.22026166319847107,"53":0.32414665818214417,"54":-0.19130554795265198,"55":-0.19029077887535095,"56":0.15045328438282013,"57":-0.05704622343182564,"58":-0.18801350891590118,"59":-0.16855160892009735,"60":-0.09638115018606186,"61":-0.17197175323963165,"62":-0.2305041402578354,"63":-0.29657238721847534,"64":0.1017858237028122,"65":0.13929374516010284,"66":0.08407432585954666,"67":0.0026876472402364016,"68":-0.0976911410689354,"69":-0.1658940464258194,"70":-0.05890941247344017,"71":-0.0234950240701437,"72":-0.1987944096326828,"73":0.05066842958331108,"74":-0.20910988748073578,"75":0.0828629657626152,"76":-0.11433407664299011,"77":0.12234782427549362,"78":0.14102385938167572,"79":-0.14639262855052948}},"12":{"bias":0.041630491614341736,"weights":{"0":0.28564003109931946,"1":0.30041512846946716,"2":-0.06752919405698776,"3":0.12355200946331024,"4":0.34362590312957764,"5":-1.380444049835205,"6":-2.512324333190918,"7":0.10662687569856644,"8":-1.3012709617614746,"9":-0.7655307650566101,"10":0.31988394260406494,"11":2.3044934272766113,"12":-0.1393422931432724,"13":-0.11529456079006195,"14":0.3838725984096527,"15":0.3211301565170288,"16":0.018814202398061752,"17":-0.15926598012447357,"18":-0.1829873025417328,"19":-0.2641838490962982,"20":0.3748590648174286,"21":-0.5938148498535156,"22":-0.23905044794082642,"23":1.6495808362960815,"24":0.7513755559921265,"25":0.6946089267730713,"26":-1.2086827754974365,"27":0.3286464810371399,"28":-0.6919575333595276,"29":-1.2753220796585083,"30":-1.7140603065490723,"31":-0.6398399472236633,"32":-0.6520481109619141,"33":-0.48190194368362427,"34":-1.0944021940231323,"35":-0.20289677381515503,"36":-0.7538664937019348,"37":-0.9804812073707581,"38":-0.4029275178909302,"39":2.951291084289551,"40":0.17836564779281616,"41":-1.2460442781448364,"42":-0.9927530884742737,"43":-0.11872263997793198,"44":1.5197879076004028,"45":0.24329924583435059,"46":0.8361302614212036,"47":1.0925068855285645,"48":-0.33745676279067993,"49":-0.9351522326469421,"50":-1.1573656797409058,"51":0.9566764235496521,"52":-0.1411173790693283,"53":0.3560238480567932,"54":-0.3025318384170532,"55":0.7182618379592896,"56":-0.05746917799115181,"57":0.058246154338121414,"58":0.15560542047023773,"59":-0.027946315705776215,"60":0.24198217689990997,"61":-0.0894463062286377,"62":-0.000001574269504089898,"63":0.12299564480781555,"64":0.2456328570842743,"65":0.007842968218028545,"66":0.11706966161727905,"67":0.14870993793010712,"68":0.11518615484237671,"69":0.16098208725452423,"70":0.0772126168012619,"71":0.08285859227180481,"72":0.22349809110164642,"73":0.056127384305000305,"74":0.027590757235884666,"75":-0.08598530292510986,"76":0.13649706542491913,"77":0.18234314024448395,"78":0.060340192168951035,"79":0.004518645349889994}},"13":{"bias":-0.26881852746009827,"weights":{"0":-0.4866536557674408,"1":-0.5668748021125793,"2":-0.2887320816516876,"3":0.08873188495635986,"4":-0.79207843542099,"5":0.8264667391777039,"6":2.2600371837615967,"7":1.2064985036849976,"8":-0.569035530090332,"9":1.1579710245132446,"10":-0.347688764333725,"11":-0.15375417470932007,"12":-0.318766713142395,"13":0.05662420019507408,"14":-0.6645799875259399,"15":0.4748084843158722,"16":-0.8157963156700134,"17":-0.07149317860603333,"18":0.0969817042350769,"19":-0.8547985553741455,"20":-0.02680460549890995,"21":-1.3855994939804077,"22":1.0703758001327515,"23":0.1313227415084839,"24":2.356637477874756,"25":0.24340075254440308,"26":0.8243623375892639,"27":-0.2803497314453125,"28":-0.7378095388412476,"29":0.46136045455932617,"30":0.624661922454834,"31":0.569828450679779,"32":0.8302422165870667,"33":-0.09446258842945099,"34":2.478121042251587,"35":1.2659395933151245,"36":-1.2003916501998901,"37":-0.5191564559936523,"38":-1.0204447507858276,"39":0.18169398605823517,"40":1.219864010810852,"41":0.05467658117413521,"42":1.131729006767273,"43":1.5583339929580688,"44":-1.892013669013977,"45":0.12661512196063995,"46":0.7425085306167603,"47":-0.5544983744621277,"48":0.4815007150173187,"49":-0.35001251101493835,"50":1.2045295238494873,"51":-0.786405086517334,"52":-0.0907478854060173,"53":-0.5418388247489929,"54":-0.3093147575855255,"55":0.022458409890532494,"56":-0.207951158285141,"57":-0.3175089657306671,"58":-0.2500867545604706,"59":-0.29326847195625305,"60":-0.0725252702832222,"61":-0.34189775586128235,"62":-0.17181812226772308,"63":-0.2576374113559723,"64":-0.3049340844154358,"65":-0.03931809961795807,"66":-0.1351013481616974,"67":-0.0313725583255291,"68":-0.2786496579647064,"69":-0.3429366648197174,"70":-0.13586947321891785,"71":-0.09147532284259796,"72":-0.023388193920254707,"73":-0.1802779734134674,"74":-0.16236907243728638,"75":-0.04835353046655655,"76":-0.14908400177955627,"77":-0.39505133032798767,"78":-0.20569893717765808,"79":-0.009290503337979317}},"14":{"bias":0.10564175993204117,"weights":{"0":-0.17898525297641754,"1":-0.39065679907798767,"2":-0.16722165048122406,"3":-0.09432636946439743,"4":-0.28086185455322266,"5":0.8775780200958252,"6":-0.8739309906959534,"7":0.9321469068527222,"8":-0.796758770942688,"9":-0.1857708990573883,"10":0.6368288993835449,"11":1.4680992364883423,"12":-0.9885421395301819,"13":0.4463404417037964,"14":0.6652594208717346,"15":1.1288704872131348,"16":0.012903200462460518,"17":0.4735885560512543,"18":0.13798610866069794,"19":-0.1260850429534912,"20":0.07253441959619522,"21":0.8905068039894104,"22":-0.238630473613739,"23":-0.296618789434433,"24":0.6822968125343323,"25":-0.012037754990160465,"26":0.5198556780815125,"27":-0.5267758369445801,"28":-0.6961280703544617,"29":-0.12731246650218964,"30":1.4467496871948242,"31":0.8349650502204895,"32":0.09433743357658386,"33":-0.21141836047172546,"34":-1.3575395345687866,"35":0.18655487895011902,"36":-0.015872875228524208,"37":0.23309528827667236,"38":1.2047061920166016,"39":0.14255987107753754,"40":0.6701463460922241,"41":-0.18853431940078735,"42":-0.4999067485332489,"43":-0.17212146520614624,"44":-0.5961244106292725,"45":0.5115638971328735,"46":-0.36432692408561707,"47":0.85894775390625,"48":1.1024866104125977,"49":-0.7028337717056274,"50":-0.46261709928512573,"51":-0.16206376254558563,"52":-0.6256811022758484,"53":-0.1447097361087799,"54":-0.04981032386422157,"55":-0.19859769940376282,"56":0.10013600438833237,"57":0.04953313246369362,"58":0.10250642150640488,"59":-0.02299758605659008,"60":-0.3256959021091461,"61":0.008424239233136177,"62":-0.17327472567558289,"63":-0.39219146966934204,"64":-0.49630072712898254,"65":0.0666380301117897,"66":-0.19888590276241302,"67":-0.2276456505060196,"68":-0.32428160309791565,"69":0.035111088305711746,"70":-0.30029669404029846,"71":-0.04165941849350929,"72":-0.17777974903583527,"73":-0.10289303213357925,"74":-0.08910910040140152,"75":-0.13001687824726105,"76":0.03291844204068184,"77":-0.29176589846611023,"78":-0.15418927371501923,"79":-0.26171186566352844}},"15":{"bias":0.0321989506483078,"weights":{"0":0.2963491380214691,"1":0.49055245518684387,"2":0.05509110912680626,"3":0.2747949957847595,"4":0.6404202580451965,"5":-1.5290098190307617,"6":-2.835620641708374,"7":-0.30599555373191833,"8":-1.1290024518966675,"9":1.1966322660446167,"10":0.2024526298046112,"11":0.2213512361049652,"12":-0.8584527969360352,"13":-0.48809343576431274,"14":0.08691148459911346,"15":-2.2475998401641846,"16":1.229601263999939,"17":-1.0083448886871338,"18":-0.43736764788627625,"19":-0.9370933771133423,"20":-0.3013531565666199,"21":-0.5590144395828247,"22":1.0855355262756348,"23":0.6116510629653931,"24":-0.36693647503852844,"25":0.20604097843170166,"26":0.2090606391429901,"27":0.9855234026908875,"28":1.2583280801773071,"29":0.22632484138011932,"30":-0.9097872376441956,"31":1.6880196332931519,"32":-0.8598802089691162,"33":0.6659013032913208,"34":-0.8962328433990479,"35":0.8823240995407104,"36":-0.6547836661338806,"37":-0.7879746556282043,"38":-0.2886502742767334,"39":0.8027544617652893,"40":-1.5943820476531982,"41":0.012435460463166237,"42":-0.1610453575849533,"43":0.023108238354325294,"44":-0.8777432441711426,"45":-0.4178321361541748,"46":-2.5668444633483887,"47":0.4191325008869171,"48":0.31620439887046814,"49":0.3722308278083801,"50":-0.2697693109512329,"51":0.653269350528717,"52":-0.41142383217811584,"53":0.34803324937820435,"54":-0.12995868921279907,"55":0.25713345408439636,"56":0.1605576127767563,"57":0.2591265141963959,"58":0.08612809330224991,"59":0.28905054926872253,"60":0.0988498106598854,"61":0.2040112465620041,"62":0.1612880975008011,"63":0.011887908913195133,"64":0.1715645045042038,"65":0.0004746030317619443,"66":0.20552872121334076,"67":0.3585980236530304,"68":0.05349644273519516,"69":0.3076418340206146,"70":0.1464764028787613,"71":0.035389047116041183,"72":0.19600136578083038,"73":0.2634947896003723,"74":0.04211096465587616,"75":0.14158429205417633,"76":0.21758274734020233,"77":0.14868570864200592,"78":0.2629697620868683,"79":0.20760692656040192}},"16":{"bias":-0.03644954785704613,"weights":{"0":0.23639637231826782,"1":0.002679444383829832,"2":-0.09386909008026123,"3":0.009208393283188343,"4":0.23325471580028534,"5":-0.7714769840240479,"6":1.558294415473938,"7":2.461397647857666,"8":-2.2218637466430664,"9":0.16722336411476135,"10":-0.26983875036239624,"11":-2.045367956161499,"12":1.7381856441497803,"13":-0.2257475107908249,"14":0.21618574857711792,"15":0.7441835403442383,"16":0.48829060792922974,"17":-0.014052417129278183,"18":0.004220927134156227,"19":0.04330555722117424,"20":-0.5971874594688416,"21":0.4829593300819397,"22":-2.184098243713379,"23":-0.2071441262960434,"24":-0.05361873656511307,"25":1.1084734201431274,"26":-1.5265417098999023,"27":1.3175607919692993,"28":0.21596349775791168,"29":-0.418445885181427,"30":1.7707281112670898,"31":0.6105302572250366,"32":-0.225504532456398,"33":0.484620600938797,"34":0.41156646609306335,"35":0.4259662628173828,"36":1.0904680490493774,"37":0.18680979311466217,"38":-0.06932441145181656,"39":1.061134696006775,"40":-0.5177255868911743,"41":-2.3315699100494385,"42":-0.9236313700675964,"43":-0.009335391223430634,"44":-1.042019248008728,"45":-0.4581051170825958,"46":0.08249417692422867,"47":-1.1977946758270264,"48":-0.31552520394325256,"49":0.03668754920363426,"50":0.46097105741500854,"51":-0.4055994153022766,"52":0.905099093914032,"53":-0.6414759755134583,"54":0.007610695902258158,"55":0.014737463556230068,"56":-0.1266484558582306,"57":-0.06978990137577057,"58":0.11095007508993149,"59":0.08749007433652878,"60":0.03211114555597305,"61":-0.03923562541604042,"62":0.002787967212498188,"63":-0.18042339384555817,"64":0.09593185037374496,"65":0.14514705538749695,"66":-0.09341835975646973,"67":-0.15721750259399414,"68":-0.1343700885772705,"69":0.11434714496135712,"70":-0.11063899099826813,"71":-0.1639890968799591,"72":0.19402042031288147,"73":0.2087043821811676,"74":0.024097517132759094,"75":-0.00896757934242487,"76":-0.13474225997924805,"77":-0.03514206036925316,"78":-0.10370947420597076,"79":-0.17560583353042603}},"17":{"bias":0.03854522109031677,"weights":{"0":-0.07699958980083466,"1":0.13061529397964478,"2":-0.0922655388712883,"3":-0.10821986943483353,"4":0.0371662937104702,"5":0.00281613995321095,"6":-0.5776270031929016,"7":0.7339943647384644,"8":-0.013005604967474937,"9":-0.7261306643486023,"10":-0.27912166714668274,"11":-0.9206944704055786,"12":-0.22743913531303406,"13":-0.15871137380599976,"14":-0.8765275478363037,"15":-0.43016570806503296,"16":-1.196193814277649,"17":1.521683931350708,"18":-0.8068447709083557,"19":0.7246679067611694,"20":-0.7880716323852539,"21":0.27420616149902344,"22":0.9011794924736023,"23":0.25358298420906067,"24":-0.33527320623397827,"25":2.1495354175567627,"26":-0.9319136738777161,"27":0.1565784364938736,"28":0.8264907598495483,"29":0.9793551564216614,"30":1.420739769935608,"31":1.0617731809616089,"32":-0.9745233654975891,"33":0.5337348580360413,"34":-0.7265313863754272,"35":-1.2706621885299683,"36":1.0007842779159546,"37":0.18033523857593536,"38":1.1321651935577393,"39":0.511962354183197,"40":-0.34983131289482117,"41":1.7505850791931152,"42":-0.37819018959999084,"43":0.6657381057739258,"44":-0.6406782865524292,"45":-0.09308674186468124,"46":-0.9140611886978149,"47":1.7072609663009644,"48":-0.1598975509405136,"49":-1.1850464344024658,"50":1.1148422956466675,"51":-0.8281362652778625,"52":-0.11562785506248474,"53":-0.20158348977565765,"54":0.07709778100252151,"55":-0.06311126798391342,"56":0.009047593921422958,"57":-0.0246791522949934,"58":-0.00264636124484241,"59":0.13073156774044037,"60":-0.046301402151584625,"61":-0.045318178832530975,"62":-0.10078546404838562,"63":0.18493913114070892,"64":0.17058654129505157,"65":0.030366268008947372,"66":0.11577053368091583,"67":0.17851050198078156,"68":-0.07717159390449524,"69":-0.13077668845653534,"70":-0.1684144288301468,"71":0.14578403532505035,"72":0.007189769297838211,"73":-0.19282640516757965,"74":0.14330990612506866,"75":0.06132946163415909,"76":0.15767614543437958,"77":0.018581049516797066,"78":0.06667907536029816,"79":-0.08617055416107178}},"18":{"bias":0.081779345870018,"weights":{"0":-0.4331102967262268,"1":-0.42056334018707275,"2":-0.1182611733675003,"3":-0.003911952022463083,"4":-0.41468125581741333,"5":1.0946968793869019,"6":0.1176481619477272,"7":0.027043869718909264,"8":1.7652668952941895,"9":0.3279259502887726,"10":-0.1285393387079239,"11":1.080014705657959,"12":1.4270179271697998,"13":0.003583661513403058,"14":-0.2257702648639679,"15":-1.270473837852478,"16":0.9968855977058411,"17":-0.08596011251211166,"18":-0.7442198991775513,"19":-0.17575496435165405,"20":0.06259320676326752,"21":-1.696838617324829,"22":-1.081937551498413,"23":0.7346590161323547,"24":-1.066728115081787,"25":-0.053294964134693146,"26":0.05270499363541603,"27":1.4220553636550903,"28":-0.33753734827041626,"29":0.5731046199798584,"30":-0.8393176198005676,"31":-0.45526406168937683,"32":-0.8241426944732666,"33":0.865246057510376,"34":0.4153653681278229,"35":0.19443219900131226,"36":2.0753915309906006,"37":1.7563526630401611,"38":-0.7263015508651733,"39":-0.014360874891281128,"40":-1.8346463441848755,"41":-1.0645581483840942,"42":0.2822762429714203,"43":1.1125108003616333,"44":0.08570883423089981,"45":-0.33943185210227966,"46":0.1190917119383812,"47":1.7411384582519531,"48":0.37968894839286804,"49":-0.727523922920227,"50":1.8364739418029785,"51":-0.477022647857666,"52":-0.38913848996162415,"53":-0.28536471724510193,"54":0.15140993893146515,"55":-0.34134677052497864,"56":-0.16469979286193848,"57":-0.22443842887878418,"58":0.001720299245789647,"59":-0.2623882591724396,"60":-0.15919604897499084,"61":-0.2116793990135193,"62":-0.12107609212398529,"63":-0.07328933477401733,"64":-0.18367034196853638,"65":-0.03392971679568291,"66":-0.14278529584407806,"67":-0.04467210918664932,"68":-0.28371554613113403,"69":0.002554908860474825,"70":-0.08460493385791779,"71":0.08072192966938019,"72":-0.12244237959384918,"73":-0.011672970838844776,"74":-0.006292849313467741,"75":0.037408486008644104,"76":-0.27926260232925415,"77":0.040699347853660583,"78":-0.28220078349113464,"79":-0.23642131686210632}},"19":{"bias":0.06705576926469803,"weights":{"0":0.14063730835914612,"1":-0.06028634309768677,"2":0.1711740493774414,"3":0.13559143245220184,"4":0.035016097128391266,"5":-2.76324462890625,"6":-0.6336966753005981,"7":-0.8255380988121033,"8":3.4764797687530518,"9":-0.4390855133533478,"10":-1.9383543729782104,"11":0.5262746810913086,"12":0.31587931513786316,"13":0.08142077922821045,"14":-0.9077950716018677,"15":-0.1584613174200058,"16":0.19717659056186676,"17":0.2769193947315216,"18":-0.27138668298721313,"19":-0.37597450613975525,"20":0.5710838437080383,"21":-0.9380281567573547,"22":-0.4846993684768677,"23":-3.932842493057251,"24":0.1141987293958664,"25":-0.13575512170791626,"26":0.8465649485588074,"27":0.3715939521789551,"28":0.5151326060295105,"29":1.3938581943511963,"30":0.6353508234024048,"31":0.7119714021682739,"32":0.40938493609428406,"33":0.05259772017598152,"34":0.37376657128334045,"35":0.1484212875366211,"36":1.2788710594177246,"37":0.13999514281749725,"38":-0.04304042458534241,"39":-0.8111599087715149,"40":0.43329110741615295,"41":-1.0834143161773682,"42":0.4694899320602417,"43":0.2752712368965149,"44":-0.5501553416252136,"45":0.07504886388778687,"46":-0.6652564406394958,"47":-1.4311389923095703,"48":-0.32267889380455017,"49":-0.3938505947589874,"50":0.31523674726486206,"51":-0.7067407965660095,"52":0.13153885304927826,"53":-0.21664926409721375,"54":-0.5459710955619812,"55":0.29627126455307007,"56":0.10635261237621307,"57":-0.04873325675725937,"58":-0.05966099351644516,"59":-0.11224615573883057,"60":-0.08557596802711487,"61":0.18145427107810974,"62":0.2210370898246765,"63":0.2694868743419647,"64":-0.004092593677341938,"65":0.14101926982402802,"66":0.08563320338726044,"67":-0.09943751990795135,"68":0.035085175186395645,"69":0.13867807388305664,"70":0.08179153501987457,"71":0.24213926494121552,"72":0.21312829852104187,"73":-0.020131731405854225,"74":0.19775691628456116,"75":-0.060709234327077866,"76":0.16227439045906067,"77":0.10342936217784882,"78":0.10788145661354065,"79":0.07290643453598022}},"20":{"bias":-0.19027718901634216,"weights":{"0":-0.6780191659927368,"1":-0.8110955953598022,"2":-0.0026861298829317093,"3":-0.3556958734989166,"4":-1.118849754333496,"5":1.2273733615875244,"6":-1.0580536127090454,"7":1.4261523485183716,"8":1.613872766494751,"9":1.8487366437911987,"10":2.5251166820526123,"11":-0.062215887010097504,"12":0.01525405328720808,"13":-0.00872850138694048,"14":1.1152160167694092,"15":0.7427810430526733,"16":0.6095573902130127,"17":0.7503948211669922,"18":-0.30323225259780884,"19":0.6551035642623901,"20":0.3042105734348297,"21":0.8069003820419312,"22":-0.48647022247314453,"23":1.3278021812438965,"24":-0.5885166525840759,"25":0.04699139669537544,"26":-0.5723276138305664,"27":0.24140474200248718,"28":0.28027984499931335,"29":-0.4765671193599701,"30":0.18865492939949036,"31":0.6823521256446838,"32":0.19595231115818024,"33":0.3017353117465973,"34":1.4931262731552124,"35":-0.10298721492290497,"36":-0.01537331659346819,"37":-0.7944485545158386,"38":-0.7503490447998047,"39":-0.2893020510673523,"40":1.6445575952529907,"41":0.5614022612571716,"42":0.1426531970500946,"43":1.1623284816741943,"44":-0.016318919137120247,"45":-0.0749480202794075,"46":1.914099931716919,"47":0.3260999321937561,"48":0.06844915449619293,"49":0.9881099462509155,"50":0.077832892537117,"51":0.6720677018165588,"52":0.5797281861305237,"53":0.08284200727939606,"54":-0.1423884928226471,"55":-0.6433424353599548,"56":-0.27531448006629944,"57":-0.5310813784599304,"58":-0.18578392267227173,"59":-0.5219056606292725,"60":-0.37027156352996826,"61":-0.4390668272972107,"62":-0.3392050564289093,"63":-0.261793851852417,"64":-0.20193704962730408,"65":-0.25737881660461426,"66":-0.4737078547477722,"67":-0.4284600615501404,"68":-0.27654004096984863,"69":-0.4983745217323303,"70":-0.2627373933792114,"71":-0.19288447499275208,"72":-0.20425784587860107,"73":-0.512874186038971,"74":-0.2766999304294586,"75":-0.41221514344215393,"76":-0.435321569442749,"77":-0.46902996301651,"78":-0.14773494005203247,"79":-0.16305893659591675}},"21":{"bias":-0.07153352349996567,"weights":{"0":-0.4120364487171173,"1":-0.4066754877567291,"2":-0.24182261526584625,"3":0.0760873481631279,"4":-0.8669611215591431,"5":-0.5242089033126831,"6":-1.4894564151763916,"7":2.420231819152832,"8":0.6179876327514648,"9":1.580567479133606,"10":0.28003355860710144,"11":0.1954609453678131,"12":2.4240384101867676,"13":0.15930719673633575,"14":-0.33815494179725647,"15":0.5577661991119385,"16":0.4351044297218323,"17":0.26500120759010315,"18":-0.2819080054759979,"19":0.5045163631439209,"20":0.5064443945884705,"21":0.23886539041996002,"22":0.5066127181053162,"23":0.26771214604377747,"24":0.4278775453567505,"25":-0.863385796546936,"26":0.32102566957473755,"27":0.37632232904434204,"28":-0.04756251722574234,"29":2.41481614112854,"30":0.076934814453125,"31":-2.128162145614624,"32":0.4946078956127167,"33":0.6758701801300049,"34":-0.006596345454454422,"35":-0.37816470861434937,"36":0.20584435760974884,"37":0.8947550654411316,"38":-0.11359760910272598,"39":0.10887356847524643,"40":0.39558055996894836,"41":-0.4537024199962616,"42":0.0437949001789093,"43":1.5154445171356201,"44":0.7031317949295044,"45":0.23746506869792938,"46":-1.2917265892028809,"47":0.4420052170753479,"48":-0.701011061668396,"49":0.49271756410598755,"50":0.20762266218662262,"51":0.3064914047718048,"52":0.5715712904930115,"53":0.029660146683454514,"54":-0.5777194499969482,"55":-0.26331937313079834,"56":-0.048011165112257004,"57":-0.2905965745449066,"58":-0.13879083096981049,"59":-0.2890959680080414,"60":-0.3665371835231781,"61":-0.13043543696403503,"62":-0.4289807379245758,"63":-0.6438900232315063,"64":-0.6307412385940552,"65":-0.05323205143213272,"66":-0.052043505012989044,"67":-0.3064633905887604,"68":-0.31539949774742126,"69":-0.12271513789892197,"70":-0.260377436876297,"71":-0.2734430134296417,"72":-0.30052492022514343,"73":-0.03152620047330856,"74":-0.3819713294506073,"75":-0.3600269854068756,"76":-0.07419149577617645,"77":-0.0723845362663269,"78":-0.42953917384147644,"79":-0.4138629138469696}},"22":{"bias":-0.22116045653820038,"weights":{"0":-0.21129246056079865,"1":-0.011215057224035263,"2":0.11055827885866165,"3":-0.1839180290699005,"4":0.021683940663933754,"5":-0.12499435245990753,"6":0.6868810057640076,"7":-2.676318883895874,"8":0.33816421031951904,"9":-0.6361116766929626,"10":0.433159202337265,"11":-1.8219712972640991,"12":-0.5732448101043701,"13":-0.09416483342647552,"14":-0.31186360120773315,"15":0.7896016240119934,"16":0.2760416567325592,"17":2.4503469467163086,"18":0.20655342936515808,"19":-0.145569309592247,"20":1.7825323343276978,"21":-0.7054147124290466,"22":0.37446287274360657,"23":0.3933994770050049,"24":-0.850131630897522,"25":0.40945008397102356,"26":1.2150729894638062,"27":1.2144783735275269,"28":0.0036087094340473413,"29":0.10200373828411102,"30":1.2420315742492676,"31":-0.18573953211307526,"32":-0.8089024424552917,"33":-2.722200393676758,"34":-0.29509028792381287,"35":0.4824103116989136,"36":0.13700507581233978,"37":-0.7368255853652954,"38":0.720039427280426,"39":0.34760546684265137,"40":-0.0912385806441307,"41":3.018481492996216,"42":0.5063740611076355,"43":0.08940105140209198,"44":0.381356418132782,"45":0.005011965055018663,"46":0.08254460990428925,"47":-1.9240684509277344,"48":1.297174334526062,"49":-0.8196135759353638,"50":0.8275856971740723,"51":-0.9516271948814392,"52":0.2593143880367279,"53":-0.7724615335464478,"54":0.42689353227615356,"55":0.12987810373306274,"56":-0.057890452444553375,"57":-0.11777710169553757,"58":0.16020062565803528,"59":0.1532030701637268,"60":0.054596759378910065,"61":0.10389973968267441,"62":-0.39805224537849426,"63":-0.4832225739955902,"64":-0.38536468148231506,"65":-0.1568966954946518,"66":0.037004925310611725,"67":-0.08572430163621902,"68":-0.0008569289930164814,"69":-0.08145753294229507,"70":0.14799638092517853,"71":0.042585909366607666,"72":-0.04010860621929169,"73":0.12867966294288635,"74":0.042918071150779724,"75":-0.12679056823253632,"76":0.08711507171392441,"77":-0.03403421491384506,"78":0.0035643691662698984,"79":0.12994681298732758}},"23":{"bias":-0.1088155210018158,"weights":{"0":-0.29209816455841064,"1":-0.3794364333152771,"2":-0.19288212060928345,"3":-0.16020168364048004,"4":-0.4779697060585022,"5":-0.08301125466823578,"6":1.7932426929473877,"7":-1.739219307899475,"8":1.2737144231796265,"9":0.41574499011039734,"10":-0.42769482731819153,"11":1.6945569515228271,"12":-0.27760958671569824,"13":0.2886218726634979,"14":-0.1528889387845993,"15":-0.128537118434906,"16":-1.3499252796173096,"17":-0.8866862654685974,"18":0.203580841422081,"19":0.6731984615325928,"20":0.17894873023033142,"21":0.3634353578090668,"22":-0.04414832219481468,"23":-0.36106282472610474,"24":-1.0159895420074463,"25":-0.10012215375900269,"26":0.11673554033041,"27":1.0691790580749512,"28":0.0496206134557724,"29":0.3980119526386261,"30":-1.4541175365447998,"31":0.2814030945301056,"32":-0.3514605462551117,"33":0.9560977220535278,"34":1.537654161453247,"35":-0.11172043532133102,"36":-0.37631940841674805,"37":-0.024291468784213066,"38":-0.22759288549423218,"39":1.79951012134552,"40":0.29127201437950134,"41":0.695637583732605,"42":0.18371151387691498,"43":-0.07942266762256622,"44":-0.21045294404029846,"45":0.0077339643612504005,"46":1.0957424640655518,"47":-0.19740265607833862,"48":0.15364186465740204,"49":-0.4306319057941437,"50":1.2109999656677246,"51":-1.1634882688522339,"52":-0.32016101479530334,"53":-0.4217311441898346,"54":0.6180711984634399,"55":-0.33945685625076294,"56":-0.14333632588386536,"57":-0.12410267442464828,"58":-0.27529168128967285,"59":-0.27347904443740845,"60":0.07939007133245468,"61":-0.20060762763023376,"62":0.031679313629865646,"63":-0.2407166212797165,"64":-0.14779376983642578,"65":-0.2675415277481079,"66":-0.21473369002342224,"67":-0.1503969132900238,"68":-0.19099149107933044,"69":-0.15643194317817688,"70":-0.11514010280370712,"71":-0.19098207354545593,"72":-0.0215155016630888,"73":-0.02759314328432083,"74":0.02571883797645569,"75":0.051568422466516495,"76":-0.2358974814414978,"77":-0.26901060342788696,"78":-0.0328921377658844,"79":-0.032648634165525436}},"24":{"bias":-0.12756164371967316,"weights":{"0":0.2699618935585022,"1":0.22617313265800476,"2":0.23692773282527924,"3":0.18352872133255005,"4":0.22615081071853638,"5":1.5630792379379272,"6":0.5768453478813171,"7":-0.281315416097641,"8":-1.5770267248153687,"9":0.11211155354976654,"10":0.051425959914922714,"11":-1.5439749956130981,"12":-0.783500075340271,"13":0.4847986400127411,"14":0.01429925300180912,"15":0.0434001199901104,"16":0.8053134083747864,"17":0.08637288957834244,"18":-0.1537344604730606,"19":-0.6366525292396545,"20":-0.1842137724161148,"21":-2.481679677963257,"22":1.5142136812210083,"23":0.33819371461868286,"24":1.2490620613098145,"25":-1.4156352281570435,"26":0.7274402379989624,"27":0.9313459992408752,"28":-0.4162220358848572,"29":-3.140666961669922,"30":-0.47153663635253906,"31":-0.12725991010665894,"32":0.8247621655464172,"33":-0.37318795919418335,"34":-0.36854252219200134,"35":0.5763659477233887,"36":-0.11420968174934387,"37":0.2256423383951187,"38":-2.1466147899627686,"39":-0.6521850824356079,"40":0.8095147013664246,"41":0.1672290563583374,"42":0.4617249369621277,"43":-1.6150926351547241,"44":0.23095303773880005,"45":0.3358179032802582,"46":0.9228469729423523,"47":-0.9728764891624451,"48":-0.48102009296417236,"49":-0.49787139892578125,"50":-0.2455085963010788,"51":0.9919590353965759,"52":-0.08889637142419815,"53":0.10220909118652344,"54":0.1863950937986374,"55":0.2257678210735321,"56":-0.00012491062807384878,"57":0.15758749842643738,"58":0.03762592375278473,"59":0.004759489092975855,"60":0.0477791503071785,"61":0.19968682527542114,"62":-0.1071208044886589,"63":0.06448780745267868,"64":0.08061418682336807,"65":0.26672807335853577,"66":0.10677573084831238,"67":0.16543397307395935,"68":0.27584758400917053,"69":-0.0037982757203280926,"70":0.17360195517539978,"71":-0.11392782628536224,"72":-0.07608522474765778,"73":-0.06484055519104004,"74":-0.03981371968984604,"75":0.11673523485660553,"76":0.15974882245063782,"77":0.04937715083360672,"78":-0.025565695017576218,"79":0.0932764858007431}},"25":{"bias":0.0010674282675608993,"weights":{"0":-0.051850080490112305,"1":0.007633288390934467,"2":0.0372718945145607,"3":0.1415790319442749,"4":0.3565065860748291,"5":1.1769424676895142,"6":-0.5192258358001709,"7":1.0354241132736206,"8":-0.8644006252288818,"9":-2.1654164791107178,"10":1.0096545219421387,"11":0.09961579740047455,"12":-3.3978464603424072,"13":-0.01294273417443037,"14":-0.6726773381233215,"15":-0.34172147512435913,"16":1.306667447090149,"17":-0.8226576447486877,"18":0.06396156549453735,"19":-0.6654476523399353,"20":0.7084116339683533,"21":-0.39242884516716003,"22":-0.1025109514594078,"23":-0.22956228256225586,"24":0.6157019138336182,"25":0.9552988409996033,"26":1.039495825767517,"27":-0.4484640061855316,"28":-0.5400751233100891,"29":0.8184407353401184,"30":-1.3983184099197388,"31":-1.4718902111053467,"32":0.14188316464424133,"33":-1.3014724254608154,"34":-2.265026330947876,"35":-0.4642646610736847,"36":-1.1180059909820557,"37":0.5604810118675232,"38":0.9046973586082458,"39":-0.173092320561409,"40":0.10875377058982849,"41":0.5346595048904419,"42":-0.2718168795108795,"43":0.478081613779068,"44":-0.25608229637145996,"45":0.04997509717941284,"46":0.6734966039657593,"47":0.006799305789172649,"48":2.0862038135528564,"49":0.5571622252464294,"50":-1.2488088607788086,"51":0.13176856935024261,"52":-0.7641799449920654,"53":0.5462538599967957,"54":-0.4652032256126404,"55":0.3017633855342865,"56":-0.13816100358963013,"57":-0.06628808379173279,"58":0.12760064005851746,"59":-0.10496365278959274,"60":0.10636450350284576,"61":-0.041036538779735565,"62":0.008415929973125458,"63":0.1624244898557663,"64":0.030810391530394554,"65":0.17453454434871674,"66":-0.02865646593272686,"67":0.18809552490711212,"68":-0.0060304272919893265,"69":0.1365603804588318,"70":0.13263189792633057,"71":0.242527574300766,"72":-0.10568149387836456,"73":0.13059307634830475,"74":0.11642418801784515,"75":0.051843754947185516,"76":0.18644557893276215,"77":-0.028579706326127052,"78":0.00022109865676611662,"79":0.10124672949314117}},"26":{"bias":-0.08204717934131622,"weights":{"0":-0.18764464557170868,"1":0.13399450480937958,"2":0.023387551307678223,"3":0.02017482928931713,"4":0.10091276466846466,"5":-0.10919392108917236,"6":-2.752385377883911,"7":-2.875810384750366,"8":1.7112443447113037,"9":0.6025455594062805,"10":-0.32036420702934265,"11":0.2458704262971878,"12":0.6237092018127441,"13":0.06902527809143066,"14":0.580297589302063,"15":-0.08587866276502609,"16":0.3405264616012573,"17":-0.19058947265148163,"18":0.11646216362714767,"19":0.5946444272994995,"20":1.2729257345199585,"21":0.0110415518283844,"22":0.6166054010391235,"23":1.2444190979003906,"24":0.237772136926651,"25":-1.4285519123077393,"26":0.6646161079406738,"27":-0.14633291959762573,"28":-0.1740238517522812,"29":-3.0065536499023438,"30":-1.5945504903793335,"31":-1.8415907621383667,"32":-0.9717020988464355,"33":-0.5332526564598083,"34":0.18442079424858093,"35":0.07745672762393951,"36":0.8059576153755188,"37":0.8140907883644104,"38":0.6065194606781006,"39":-0.6421197056770325,"40":0.05561590939760208,"41":0.13992638885974884,"42":0.4337155818939209,"43":1.2720327377319336,"44":1.1406612396240234,"45":0.1495968997478485,"46":-0.03291681781411171,"47":0.2944183647632599,"48":-0.4694421589374542,"49":-0.5717639327049255,"50":-0.7570657134056091,"51":-0.12140830606222153,"52":-0.7040494084358215,"53":0.18767786026000977,"54":-0.23114919662475586,"55":0.47145694494247437,"56":0.02501104772090912,"57":-0.1966504454612732,"58":0.078620046377182,"59":0.1730460375547409,"60":0.13849171996116638,"61":-0.15066850185394287,"62":-0.1554127186536789,"63":-0.005623904522508383,"64":-0.11773040890693665,"65":-0.08433549851179123,"66":-0.09337367862462997,"67":0.01766933500766754,"68":-0.08859456330537796,"69":0.030803486704826355,"70":-0.08946146816015244,"71":-0.10311733931303024,"72":0.024462835863232613,"73":0.11251028627157211,"74":0.025633059442043304,"75":-0.05188601464033127,"76":-0.18903669714927673,"77":-0.017253069207072258,"78":0.04567606747150421,"79":-0.07141885161399841}},"27":{"bias":-0.07000438868999481,"weights":{"0":0.04374120011925697,"1":-0.049744296818971634,"2":0.007605895400047302,"3":0.00908532366156578,"4":0.26076313853263855,"5":0.4265959858894348,"6":-1.764523983001709,"7":0.11755985766649246,"8":-0.7017223238945007,"9":-0.08140654861927032,"10":-0.15695907175540924,"11":-1.255243182182312,"12":0.7126642465591431,"13":0.28871506452560425,"14":0.24021923542022705,"15":-0.42378678917884827,"16":0.1116810292005539,"17":0.42405298352241516,"18":-1.5940678119659424,"19":0.02496265061199665,"20":0.7393838763237,"21":0.08093935996294022,"22":0.13014107942581177,"23":0.3300190269947052,"24":-1.10796320438385,"25":-0.24406100809574127,"26":-2.78676438331604,"27":-1.2388578653335571,"28":1.46671724319458,"29":-1.7010985612869263,"30":-0.8591330647468567,"31":-1.7877839803695679,"32":-0.049647100269794464,"33":0.24793215095996857,"34":1.4845141172409058,"35":-1.687813401222229,"36":0.6907994747161865,"37":-0.02283547818660736,"38":-0.22880251705646515,"39":-2.3979241847991943,"40":0.45820891857147217,"41":1.5394303798675537,"42":-0.16966979205608368,"43":0.9029580950737,"44":-0.44583988189697266,"45":-0.6830480694770813,"46":0.026513224467635155,"47":0.7745568156242371,"48":0.21304628252983093,"49":0.17148742079734802,"50":1.0406118631362915,"51":0.014244779013097286,"52":0.02385152131319046,"53":-0.2311190664768219,"54":0.34902045130729675,"55":-0.010102421045303345,"56":0.24676403403282166,"57":0.06682108342647552,"58":0.005231068469583988,"59":0.0068382080644369125,"60":0.16898736357688904,"61":0.22020477056503296,"62":-0.05718188360333443,"63":-0.5146515369415283,"64":-0.33472540974617004,"65":-0.04451100900769234,"66":0.17968162894248962,"67":0.050136614590883255,"68":0.14938437938690186,"69":0.24670147895812988,"70":0.05153505131602287,"71":0.17196977138519287,"72":0.24591439962387085,"73":0.021601198241114616,"74":0.14025214314460754,"75":0.10582452267408371,"76":0.005476390477269888,"77":0.2245166301727295,"78":-0.05032676085829735,"79":-0.13703373074531555}},"28":{"bias":0.096279576420784,"weights":{"0":-0.004070153925567865,"1":-0.047916486859321594,"2":-0.1576772928237915,"3":-0.09879647195339203,"4":-0.3176284432411194,"5":-1.4555696249008179,"6":0.5367060303688049,"7":0.03927825391292572,"8":2.1873598098754883,"9":0.01117196585983038,"10":0.23675388097763062,"11":0.350903183221817,"12":2.030189275741577,"13":-0.3930782079696655,"14":1.0298999547958374,"15":0.7315496802330017,"16":1.5963349342346191,"17":-0.25240281224250793,"18":0.18129904568195343,"19":0.1037362813949585,"20":-0.37833744287490845,"21":-1.2944155931472778,"22":-0.2365272045135498,"23":-0.8273761868476868,"24":-1.6744191646575928,"25":0.8185601830482483,"26":1.5180251598358154,"27":-0.6547917127609253,"28":-0.06847339868545532,"29":-0.9209520220756531,"30":-1.893375277519226,"31":0.9926735162734985,"32":0.12060072273015976,"33":-0.5264186263084412,"34":-1.5511881113052368,"35":0.0038052054587751627,"36":-0.21919699013233185,"37":-0.1414605677127838,"38":1.0705327987670898,"39":0.17858070135116577,"40":-0.8089258074760437,"41":-1.3604525327682495,"42":-0.24850726127624512,"43":1.1439534425735474,"44":0.1593484729528427,"45":0.1358187049627304,"46":0.6780349016189575,"47":0.6288732886314392,"48":0.004849593620747328,"49":-0.5933294296264648,"50":-0.4042498469352722,"51":-0.480800062417984,"52":0.05978338047862053,"53":0.1389392912387848,"54":0.2079208344221115,"55":-0.03619398549199104,"56":-0.19720953702926636,"57":-0.16684481501579285,"58":-0.18780583143234253,"59":-0.0028876797296106815,"60":-0.03430268540978432,"61":-0.10301956534385681,"62":0.1847158819437027,"63":0.15877172350883484,"64":-0.023933907970786095,"65":-0.027317291125655174,"66":0.10557658970355988,"67":0.0747942104935646,"68":-0.08912672102451324,"69":0.09314227104187012,"70":-0.14315849542617798,"71":0.010787404142320156,"72":-0.12705814838409424,"73":0.1384698748588562,"74":-0.17419198155403137,"75":-0.07678603380918503,"76":0.0301780104637146,"77":0.08980225026607513,"78":0.03773529455065727,"79":-0.09222978353500366}},"29":{"bias":-0.06752852350473404,"weights":{"0":-0.007841724902391434,"1":0.2679551839828491,"2":-0.07759794592857361,"3":0.167904332280159,"4":0.3404807448387146,"5":1.1618539094924927,"6":-0.4908463954925537,"7":0.8832381963729858,"8":1.6944451332092285,"9":-1.8238303661346436,"10":0.14198340475559235,"11":-0.005331778898835182,"12":-0.39027780294418335,"13":-0.341057151556015,"14":-1.4338361024856567,"15":0.4841459095478058,"16":1.2991549968719482,"17":-1.6578774452209473,"18":0.1733236312866211,"19":-0.4829377830028534,"20":-0.16796231269836426,"21":0.4306648075580597,"22":-0.16963501274585724,"23":0.3501587510108948,"24":-0.6354207396507263,"25":0.05524684861302376,"26":-1.2819491624832153,"27":0.4009370505809784,"28":0.21469804644584656,"29":-0.8346296548843384,"30":-1.4051973819732666,"31":1.1176236867904663,"32":-0.8587523102760315,"33":-0.6953136324882507,"34":0.7029097080230713,"35":0.07602992653846741,"36":-0.5491599440574646,"37":-0.857498049736023,"38":0.11240589618682861,"39":-0.18166083097457886,"40":-0.8171306848526001,"41":1.0124986171722412,"42":-0.14951425790786743,"43":0.825049877166748,"44":0.5803240537643433,"45":-0.43417954444885254,"46":0.30363839864730835,"47":0.42169278860092163,"48":1.2961430549621582,"49":0.248551607131958,"50":-0.17856304347515106,"51":-0.4220753610134125,"52":-0.7515599727630615,"53":-0.11307110637426376,"54":-0.5430870056152344,"55":0.4362972378730774,"56":0.24824731051921844,"57":0.23052090406417847,"58":0.2705610394477844,"59":0.19453564286231995,"60":0.22998788952827454,"61":-0.05772435665130615,"62":-0.316917359828949,"63":-0.22731702029705048,"64":-0.10788093507289886,"65":0.08073616772890091,"66":0.04354346916079521,"67":0.28626370429992676,"68":0.19098889827728271,"69":0.019831938669085503,"70":0.25943413376808167,"71":0.17517584562301636,"72":-0.0070680589415133,"73":0.10152766853570938,"74":-0.13707348704338074,"75":0.2530631422996521,"76":0.06653115898370743,"77":0.15997231006622314,"78":-0.08531733602285385,"79":0.0051168715581297874}},"30":{"bias":0.1694902926683426,"weights":{"0":-0.259610116481781,"1":-0.24620239436626434,"2":0.1685105562210083,"3":-0.011305956169962883,"4":-0.2427230179309845,"5":-0.6234379410743713,"6":0.3469323217868805,"7":-1.7022186517715454,"8":-0.679117739200592,"9":-0.11650098860263824,"10":-2.032914876937866,"11":-0.16639427840709686,"12":0.5094834566116333,"13":-0.2559438645839691,"14":-1.1784429550170898,"15":0.055210478603839874,"16":-0.008589773438870907,"17":-0.4281775653362274,"18":1.3578248023986816,"19":0.16072680056095123,"20":0.43694475293159485,"21":-0.5566526651382446,"22":-0.38876983523368835,"23":0.16680863499641418,"24":-0.6094847917556763,"25":-0.9873417019844055,"26":2.0050439834594727,"27":0.5777222514152527,"28":-0.2612593472003937,"29":2.288623094558716,"30":1.7606302499771118,"31":-0.8737804293632507,"32":0.5902055501937866,"33":0.9835078120231628,"34":0.7325947880744934,"35":0.7162259817123413,"36":-0.5254448652267456,"37":-0.07749604433774948,"38":-0.6239440441131592,"39":0.4285948872566223,"40":0.2892899513244629,"41":2.8404321670532227,"42":1.63227117061615,"43":0.5378632545471191,"44":-1.8942450284957886,"45":-0.5620338916778564,"46":1.2337367534637451,"47":-1.5230011940002441,"48":-0.003068368649110198,"49":-0.5130544900894165,"50":0.03930990397930145,"51":0.38778311014175415,"52":0.29676416516304016,"53":0.09560711681842804,"54":-0.13310499489307404,"55":0.06055837497115135,"56":0.06690602749586105,"57":0.14576256275177002,"58":0.021748384460806847,"59":0.028537025675177574,"60":-0.02925337851047516,"61":0.007740937173366547,"62":0.035952161997556686,"63":0.33994919061660767,"64":0.0042406972497701645,"65":-0.06544072926044464,"66":0.03602869063615799,"67":-0.18538782000541687,"68":0.15259191393852234,"69":-0.02777167223393917,"70":-0.03146648406982422,"71":0.04108022525906563,"72":0.01656520366668701,"73":-0.22267481684684753,"74":-0.006252117455005646,"75":-0.019673317670822144,"76":0.10399963706731796,"77":0.06504100561141968,"78":-0.072870634496212,"79":-0.06082340329885483}},"31":{"bias":-0.0045373160392045975,"weights":{"0":0.3249119520187378,"1":0.17294397950172424,"2":0.23083974421024323,"3":0.0006457839044742286,"4":0.13709591329097748,"5":0.8163437843322754,"6":-0.9060263633728027,"7":0.6838116645812988,"8":0.7093940377235413,"9":-0.2437412440776825,"10":0.9768832921981812,"11":1.5376999378204346,"12":-1.4501162767410278,"13":0.2215799242258072,"14":-0.32904118299484253,"15":0.18161453306674957,"16":-1.135451078414917,"17":-2.3636932373046875,"18":0.04314575344324112,"19":-0.42150038480758667,"20":0.30373215675354004,"21":-2.621537685394287,"22":-0.07247114181518555,"23":0.2211667001247406,"24":-0.6009061336517334,"25":-0.5292317271232605,"26":-1.5402629375457764,"27":0.2842627763748169,"28":-0.6231461763381958,"29":-0.8982475399971008,"30":0.3659743070602417,"31":-0.2916070520877838,"32":0.18234679102897644,"33":-0.8745625615119934,"34":1.6974259614944458,"35":0.3854638934135437,"36":-0.18448738753795624,"37":0.05493202060461044,"38":-0.6195586323738098,"39":0.24668794870376587,"40":0.35124915838241577,"41":-0.4809131622314453,"42":0.12252847105264664,"43":0.8363514542579651,"44":-0.009368023835122585,"45":0.018339142203330994,"46":0.3753329813480377,"47":-0.05127805098891258,"48":-0.40803971886634827,"49":-0.1853092461824417,"50":-0.20234538614749908,"51":0.2859249413013458,"52":0.23539532721042633,"53":0.14848661422729492,"54":-0.07068578898906708,"55":-0.33590736985206604,"56":-0.07478302717208862,"57":0.10609188675880432,"58":-0.07310903072357178,"59":0.28155627846717834,"60":0.22730284929275513,"61":-0.08935004472732544,"62":-0.05196315422654152,"63":0.009155066683888435,"64":0.07741131633520126,"65":0.15488311648368835,"66":0.10602530837059021,"67":0.07531264424324036,"68":0.07589349150657654,"69":0.16048160195350647,"70":0.09722618758678436,"71":-0.0589766651391983,"72":0.019209515303373337,"73":0.19914916157722473,"74":0.03674278035759926,"75":0.005233218893408775,"76":0.04649307578802109,"77":0.23259228467941284,"78":-0.0019142408855259418,"79":0.14117184281349182}},"32":{"bias":0.10710970312356949,"weights":{"0":0.18508486449718475,"1":0.18355266749858856,"2":0.19515733420848846,"3":0.18132860958576202,"4":0.5214748978614807,"5":-1.7189099788665771,"6":-0.9499672651290894,"7":-0.4103409945964813,"8":1.902062177658081,"9":-0.0767550989985466,"10":0.7915052771568298,"11":0.2865404486656189,"12":-0.6793007254600525,"13":0.008712390437722206,"14":-0.8743935227394104,"15":-1.5316044092178345,"16":-0.5780987739562988,"17":1.0022847652435303,"18":-0.3753662705421448,"19":0.1432861089706421,"20":0.3624279499053955,"21":-1.5747437477111816,"22":-0.47346174716949463,"23":-0.030118070542812347,"24":-2.9764835834503174,"25":-1.6181726455688477,"26":0.04962247982621193,"27":0.8075228929519653,"28":-0.1892634481191635,"29":-0.42132535576820374,"30":1.856484055519104,"31":0.9025998115539551,"32":-0.3850330412387848,"33":-0.5502033233642578,"34":1.5952781438827515,"35":0.4538646638393402,"36":0.12355200201272964,"37":0.6249681115150452,"38":-1.1142853498458862,"39":0.09004411846399307,"40":0.28800711035728455,"41":-0.46861034631729126,"42":0.4063030481338501,"43":-0.7009449005126953,"44":-0.677197277545929,"45":-0.002314793411642313,"46":-0.9464071989059448,"47":-0.5212063789367676,"48":-0.06416022777557373,"49":1.2394218444824219,"50":-0.012698739767074585,"51":-0.27157625555992126,"52":0.5419424176216125,"53":0.6742503046989441,"54":0.16859498620033264,"55":0.2665771245956421,"56":0.2167658805847168,"57":0.17968831956386566,"58":-0.0826064944267273,"59":-0.009078199975192547,"60":-0.011706487275660038,"61":0.06845343858003616,"62":0.22455227375030518,"63":0.38766589760780334,"64":0.3812726140022278,"65":0.029544729739427567,"66":0.0500054694712162,"67":0.11711570620536804,"68":-0.09274841099977493,"69":0.0568033829331398,"70":0.099004365503788,"71":0.23809492588043213,"72":0.009405742399394512,"73":0.050932567566633224,"74":0.14961457252502441,"75":-0.06726910918951035,"76":0.0437784343957901,"77":0.24718385934829712,"78":-0.01314118504524231,"79":0.06901346147060394}},"33":{"bias":-0.09012851864099503,"weights":{"0":-0.17819981276988983,"1":0.11822804063558578,"2":-0.014426429755985737,"3":0.015110219828784466,"4":0.15814407169818878,"5":-1.4992127418518066,"6":0.3314792811870575,"7":-0.8397358655929565,"8":-0.550605297088623,"9":2.193678617477417,"10":0.14581860601902008,"11":-0.6400089859962463,"12":0.2817385196685791,"13":-0.34148645401000977,"14":-1.0869624614715576,"15":-1.1277251243591309,"16":-0.0924782007932663,"17":-0.39944595098495483,"18":0.3606535792350769,"19":-1.0268300771713257,"20":0.0771549642086029,"21":0.1699264943599701,"22":-0.8633818030357361,"23":-0.8824450969696045,"24":-1.0737107992172241,"25":-0.2554183602333069,"26":0.9185855984687805,"27":-0.8331213593482971,"28":-0.5303027033805847,"29":1.770062804222107,"30":0.8085162043571472,"31":0.8246321082115173,"32":0.7472453117370605,"33":-1.1370636224746704,"34":0.245075061917305,"35":-0.9319442510604858,"36":2.4680140018463135,"37":0.47536006569862366,"38":1.8936266899108887,"39":1.530134916305542,"40":-0.9317594766616821,"41":-0.2719601094722748,"42":-0.03287094831466675,"43":1.8986895084381104,"44":0.3965156674385071,"45":-1.321354866027832,"46":0.2695184051990509,"47":-0.2520614266395569,"48":-0.4358525276184082,"49":-0.19275614619255066,"50":-0.2709985375404358,"51":0.32157257199287415,"52":0.09337633103132248,"53":0.35519033670425415,"54":-0.1036691814661026,"55":-0.08076292276382446,"56":-0.07686744630336761,"57":0.14307305216789246,"58":0.011957677081227303,"59":0.063662089407444,"60":-0.02289949357509613,"61":-0.192607581615448,"62":0.04052998870611191,"63":0.3858214318752289,"64":0.2559604048728943,"65":0.184409499168396,"66":0.046526167541742325,"67":0.1520138829946518,"68":0.049474235624074936,"69":-0.05496099963784218,"70":-0.12551133334636688,"71":0.07724364846944809,"72":-0.1658262014389038,"73":0.11112893372774124,"74":0.11251474171876907,"75":-0.037555716931819916,"76":0.022827500477433205,"77":-0.06428464502096176,"78":0.0615498423576355,"79":-0.1589982807636261}},"34":{"bias":0.11425548791885376,"weights":{"0":0.1572583168745041,"1":0.10238811373710632,"2":0.2275010645389557,"3":-0.046299006789922714,"4":0.38044261932373047,"5":-0.006004021503031254,"6":-0.9315406084060669,"7":-0.03302297368645668,"8":-0.570709228515625,"9":0.29974886775016785,"10":-0.5664475560188293,"11":0.34294450283050537,"12":0.282314270734787,"13":-0.3934324383735657,"14":-0.13438884913921356,"15":0.09194284677505493,"16":0.30719491839408875,"17":-0.4981440305709839,"18":-0.5282829403877258,"19":1.4939939975738525,"20":-0.3399958908557892,"21":-0.5797306895256042,"22":-0.8853697776794434,"23":-2.060649871826172,"24":1.0747437477111816,"25":0.26404431462287903,"26":-1.3715121746063232,"27":-0.4647367596626282,"28":1.033434510231018,"29":-1.0900267362594604,"30":0.5502313375473022,"31":0.5661988258361816,"32":-0.6849986910820007,"33":0.10204390436410904,"34":0.91436767578125,"35":-0.24985581636428833,"36":-0.37545332312583923,"37":1.323108196258545,"38":-0.5293790102005005,"39":-0.7883596420288086,"40":-0.17836210131645203,"41":0.3745623826980591,"42":-0.8901155591011047,"43":0.7426131367683411,"44":-0.09928996860980988,"45":0.1554211676120758,"46":0.825151801109314,"47":-0.5542087554931641,"48":-0.43626105785369873,"49":-0.20775288343429565,"50":-0.5430812835693359,"51":0.6504935026168823,"52":0.3641040325164795,"53":0.5246787667274475,"54":-0.006917585618793964,"55":-0.18835029006004333,"56":-0.00017544516595080495,"57":0.16604071855545044,"58":0.010159607976675034,"59":0.012537439353764057,"60":-0.0025136799085885286,"61":-0.08563470095396042,"62":0.038961928337812424,"63":0.1330493539571762,"64":0.12630437314510345,"65":0.13546150922775269,"66":0.25083836913108826,"67":0.2729177176952362,"68":-0.06920907646417618,"69":0.11998728662729263,"70":0.28990066051483154,"71":-0.0665552094578743,"72":0.08078006654977798,"73":0.235211580991745,"74":0.0375920794904232,"75":0.04358937218785286,"76":-0.010136030614376068,"77":0.010685582645237446,"78":0.14355900883674622,"79":-0.0903247520327568}},"35":{"bias":0.04393152520060539,"weights":{"0":-0.15405796468257904,"1":-0.057358648627996445,"2":0.0548848994076252,"3":-0.05677187815308571,"4":-0.36631134152412415,"5":-0.6780382990837097,"6":-1.2861300706863403,"7":1.7155342102050781,"8":1.0729331970214844,"9":-0.39471760392189026,"10":-0.014174973592162132,"11":-0.575069010257721,"12":1.9790338277816772,"13":-0.27144116163253784,"14":-0.0022075313609093428,"15":0.4270699620246887,"16":1.8011771440505981,"17":0.7106726169586182,"18":0.13501563668251038,"19":-0.09972579032182693,"20":-0.1591387838125229,"21":-0.00808937568217516,"22":1.2503774166107178,"23":0.6451510190963745,"24":-0.5910159945487976,"25":0.6801435947418213,"26":-1.8761180639266968,"27":-0.8650400042533875,"28":-0.674759030342102,"29":-0.3416869342327118,"30":0.3631448447704315,"31":1.1534059047698975,"32":-0.34308990836143494,"33":0.7642449140548706,"34":1.4586347341537476,"35":0.10558225214481354,"36":-0.5864033699035645,"37":1.0410689115524292,"38":0.4319843053817749,"39":-1.0326738357543945,"40":-0.6213636994361877,"41":0.08465126901865005,"42":-0.12981802225112915,"43":-1.2823913097381592,"44":0.9740078449249268,"45":-0.033764250576496124,"46":-0.7335334420204163,"47":0.5805432796478271,"48":0.20183195173740387,"49":0.23146189749240875,"50":-0.15264688432216644,"51":0.6408385038375854,"52":0.298389732837677,"53":0.5291433930397034,"54":-0.9077690839767456,"55":-0.2709123194217682,"56":-0.06496839970350266,"57":0.009972954168915749,"58":-0.2318405658006668,"59":-0.2581346035003662,"60":-0.05129695683717728,"61":0.05031992495059967,"62":0.07339514791965485,"63":0.3765612542629242,"64":0.13954994082450867,"65":-0.08993426710367203,"66":-0.1269926130771637,"67":-0.21328233182430267,"68":-0.25320926308631897,"69":-0.11610019952058792,"70":0.03614984452724457,"71":0.06492113322019577,"72":0.03985045105218887,"73":-0.06911265850067139,"74":-0.06183589622378349,"75":-0.24020346999168396,"76":-0.04387437552213669,"77":0.09403681010007858,"78":-0.019414378330111504,"79":-0.11482315510511398}},"36":{"bias":0.20637363195419312,"weights":{"0":-0.013334663584828377,"1":-0.05534179136157036,"2":0.0903516635298729,"3":0.023491673171520233,"4":0.2744557559490204,"5":0.6152684688568115,"6":-1.76663339138031,"7":1.6047677993774414,"8":-0.42463329434394836,"9":-0.7546460628509521,"10":0.8651248812675476,"11":-0.3152519464492798,"12":0.8376233577728271,"13":-0.37960493564605713,"14":-1.210737705230713,"15":-0.3583379089832306,"16":0.10082125663757324,"17":-0.31403830647468567,"18":0.1735958606004715,"19":0.03961487486958504,"20":0.9751004576683044,"21":-0.19382356107234955,"22":1.2788561582565308,"23":0.7975842356681824,"24":-1.1229544878005981,"25":-0.11641772091388702,"26":1.0699677467346191,"27":-0.8967890739440918,"28":0.3510926365852356,"29":0.5240503549575806,"30":-0.1829340010881424,"31":1.3332079648971558,"32":-0.5658358335494995,"33":0.47949445247650146,"34":-1.9391279220581055,"35":-0.38840898871421814,"36":-0.5394409894943237,"37":1.1286040544509888,"38":0.0687033087015152,"39":0.391954243183136,"40":0.8007000088691711,"41":-0.0033479586709290743,"42":0.04822327196598053,"43":-2.4744930267333984,"44":0.5255656242370605,"45":0.13070842623710632,"46":-0.5803328156471252,"47":0.14041736721992493,"48":0.5942946076393127,"49":0.011404454708099365,"50":-0.6260265707969666,"51":0.4007377326488495,"52":0.24339774250984192,"53":0.10609764605760574,"54":-0.605069100856781,"55":0.3837043046951294,"56":0.20749925076961517,"57":-0.012952528893947601,"58":0.22438649833202362,"59":0.25473207235336304,"60":-0.11309629678726196,"61":-0.1318383365869522,"62":0.05122354254126549,"63":-0.04481062293052673,"64":0.2004644274711609,"65":0.10311432182788849,"66":0.13392764329910278,"67":0.13272453844547272,"68":0.1841927319765091,"69":0.22669030725955963,"70":-0.08572396636009216,"71":-0.1279975175857544,"72":0.11043506860733032,"73":0.10550610721111298,"74":-0.05737413465976715,"75":0.011552616953849792,"76":-0.008102195337414742,"77":-0.1345319300889969,"78":-0.054431378841400146,"79":0.19026534259319305}},"37":{"bias":0.11196707934141159,"weights":{"0":0.20454692840576172,"1":-0.16027840971946716,"2":0.042738355696201324,"3":0.09285536408424377,"4":-0.12910206615924835,"5":-1.9695090055465698,"6":-2.822643280029297,"7":-1.005358099937439,"8":-2.730266571044922,"9":-0.19430559873580933,"10":0.2831457853317261,"11":-0.3229358494281769,"12":-0.633938193321228,"13":-1.0729598999023438,"14":0.8385218977928162,"15":-0.21252501010894775,"16":1.7920254468917847,"17":1.7918282747268677,"18":-0.8672642111778259,"19":-0.8401092886924744,"20":1.6733254194259644,"21":-1.8130991458892822,"22":-0.4215377867221832,"23":0.3730121850967407,"24":-0.8999012112617493,"25":0.2561729848384857,"26":0.4340496063232422,"27":1.448122262954712,"28":-0.719553530216217,"29":0.3868241012096405,"30":0.4284493923187256,"31":-0.9165561199188232,"32":1.5287665128707886,"33":0.26107874512672424,"34":2.158474922180176,"35":-0.1895751804113388,"36":0.7225590348243713,"37":1.8341389894485474,"38":0.42887675762176514,"39":-0.4717581868171692,"40":0.20035690069198608,"41":0.11518453061580658,"42":0.6547330021858215,"43":-0.09913049638271332,"44":-0.07396376878023148,"45":-0.13013911247253418,"46":0.038505736738443375,"47":-0.43741121888160706,"48":0.23814314603805542,"49":-0.24621547758579254,"50":-0.27863505482673645,"51":0.20905658602714539,"52":-0.5915843844413757,"53":0.17559008300304413,"54":0.37957829236984253,"55":0.16483604907989502,"56":-0.15335701406002045,"57":0.1842688024044037,"58":-0.17552338540554047,"59":-0.12422336637973785,"60":0.16460105776786804,"61":-0.09463074803352356,"62":0.11541693657636642,"63":-0.05379853770136833,"64":0.08737296611070633,"65":-0.18698400259017944,"66":-0.18816813826560974,"67":-0.044011957943439484,"68":-0.0565924271941185,"69":0.08418694138526917,"70":0.037894755601882935,"71":0.12345265597105026,"72":-0.12658162415027618,"73":0.10928577184677124,"74":-0.13850608468055725,"75":0.10919086635112762,"76":-0.12281414121389389,"77":0.12773358821868896,"78":-0.03269804269075394,"79":-0.0621647909283638}},"38":{"bias":0.23722690343856812,"weights":{"0":0.29858729243278503,"1":0.3822142481803894,"2":0.2327544242143631,"3":-0.10113649070262909,"4":0.46124178171157837,"5":-1.4471397399902344,"6":1.5155465602874756,"7":-0.8930332660675049,"8":1.375929355621338,"9":-0.16419166326522827,"10":-0.2699648439884186,"11":-1.1342064142227173,"12":-0.7340704202651978,"13":0.03469337895512581,"14":-0.038358211517333984,"15":-0.13199812173843384,"16":2.1818506717681885,"17":-1.7361583709716797,"18":-0.03589693456888199,"19":-0.49904850125312805,"20":1.530651330947876,"21":-0.3783279061317444,"22":-1.0002226829528809,"23":-1.2227284908294678,"24":-0.20668520033359528,"25":0.02995649352669716,"26":-0.025358764454722404,"27":-0.24355345964431763,"28":-0.39444079995155334,"29":-0.4940488934516907,"30":0.27102160453796387,"31":-0.22661927342414856,"32":-0.26990872621536255,"33":0.517189621925354,"34":0.14562304317951202,"35":-0.0302297193557024,"36":0.3166692554950714,"37":2.3700318336486816,"38":0.37582361698150635,"39":-0.821272075176239,"40":0.42015770077705383,"41":-0.25585222244262695,"42":-1.1650086641311646,"43":0.5837786793708801,"44":0.20636406540870667,"45":-0.02379535883665085,"46":0.025815362110733986,"47":-0.04448123648762703,"48":-0.11991582810878754,"49":0.1889924705028534,"50":0.08499370515346527,"51":0.4099646806716919,"52":-0.030965039506554604,"53":-0.17869892716407776,"54":0.2490217685699463,"55":0.23688077926635742,"56":-0.0687190443277359,"57":0.050558771938085556,"58":0.07035700976848602,"59":-0.03446020558476448,"60":0.2989160716533661,"61":0.19049334526062012,"62":0.007097350433468819,"63":0.07546670734882355,"64":-0.07338929921388626,"65":-0.057820651680231094,"66":0.24082455039024353,"67":-0.009637510403990746,"68":0.08521072566509247,"69":0.2030053734779358,"70":0.24679890275001526,"71":0.1503714770078659,"72":0.1037994846701622,"73":0.25542303919792175,"74":0.2706489562988281,"75":-0.04497811570763588,"76":0.10411467403173447,"77":0.10205759853124619,"78":-0.04362858459353447,"79":0.08766400068998337}},"39":{"bias":0.2650047540664673,"weights":{"0":0.6214264035224915,"1":0.692264974117279,"2":0.050318993628025055,"3":0.09565797448158264,"4":1.1860618591308594,"5":3.1430904865264893,"6":0.24492745101451874,"7":-1.3323091268539429,"8":0.15289556980133057,"9":-0.33104217052459717,"10":0.07361742109060287,"11":0.01373311411589384,"12":-2.106506824493408,"13":-0.0374409444630146,"14":3.3365557193756104,"15":-0.6505202651023865,"16":-0.3516724109649658,"17":-0.45377933979034424,"18":-0.05338643491268158,"19":0.22459693253040314,"20":-0.565427303314209,"21":-0.9146921634674072,"22":0.6953110694885254,"23":0.370714008808136,"24":-2.9778876304626465,"25":-1.4337105751037598,"26":-0.9067618250846863,"27":-1.0806915760040283,"28":-1.2567692995071411,"29":-0.7938934564590454,"30":-3.5954349040985107,"31":-1.2123233079910278,"32":-0.5452969670295715,"33":-0.44991663098335266,"34":-2.1415157318115234,"35":0.49597516655921936,"36":0.06334016472101212,"37":-0.5992753505706787,"38":-0.5630677938461304,"39":-1.10677170753479,"40":0.12879721820354462,"41":-0.40147626399993896,"42":0.2058546543121338,"43":-0.00021746015409007668,"44":-1.4986759424209595,"45":0.17257259786128998,"46":1.1686521768569946,"47":-0.8405669927597046,"48":0.649100124835968,"49":-1.131364107131958,"50":-0.872404932975769,"51":-0.6638920307159424,"52":-0.5405024290084839,"53":-0.3812403380870819,"54":0.3664463758468628,"55":0.2716950476169586,"56":0.6034200191497803,"57":0.2197357714176178,"58":0.4231720268726349,"59":0.34877756237983704,"60":0.22774672508239746,"61":0.5550541877746582,"62":0.37212157249450684,"63":0.18264810740947723,"64":0.007925174199044704,"65":0.32421305775642395,"66":0.5232032537460327,"67":0.44086334109306335,"68":0.4881066381931305,"69":0.5393192172050476,"70":0.3908994495868683,"71":0.3220870792865753,"72":0.524384081363678,"73":0.20686078071594238,"74":0.35446956753730774,"75":0.5634039044380188,"76":0.4454587996006012,"77":0.3014780879020691,"78":0.4070000946521759,"79":0.44832369685173035}}},{"working_depth_of_tooth":{"bias":-0.28255516290664673,"weights":{"0":-0.6280496716499329,"1":1.2907551527023315,"2":2.2257258892059326,"3":-0.15910354256629944,"4":-0.6582253575325012,"5":-0.5424689650535583,"6":-0.6787229776382446,"7":0.0762140229344368,"8":0.29051655530929565,"9":1.6757975816726685,"10":-0.5914431810379028,"11":0.7188957929611206,"12":-1.7196836471557617,"13":-1.507614254951477,"14":-2.440476417541504,"15":1.7463210821151733,"16":2.469184160232544,"17":-2.6256275177001953,"18":-0.9813694357872009,"19":-0.7196627259254456,"20":1.3692049980163574,"21":-2.0674800872802734,"22":4.736600399017334,"23":0.8883956074714661,"24":-0.8957335352897644,"25":-2.2749764919281006,"26":-3.1503703594207764,"27":3.6356301307678223,"28":-0.2917596697807312,"29":2.2009027004241943,"30":-0.36099332571029663,"31":-1.002427339553833,"32":2.720752716064453,"33":-2.369647741317749,"34":-3.165574312210083,"35":0.36475440859794617,"36":0.9463847875595093,"37":-1.6626931428909302,"38":-3.817929744720459,"39":-0.45109593868255615}},"gear_ratio":{"bias":0.19645795226097107,"weights":{"0":-1.1543992757797241,"1":3.13443922996521,"2":-2.2071356773376465,"3":-1.6280335187911987,"4":-2.6982572078704834,"5":-0.8234784007072449,"6":-0.3355143964290619,"7":-4.696895122528076,"8":-0.7080829739570618,"9":1.8553123474121094,"10":-0.3793850541114807,"11":1.411609411239624,"12":4.5843329429626465,"13":-2.0991992950439453,"14":0.7173373699188232,"15":-2.5615506172180176,"16":0.6479400396347046,"17":-2.8780100345611572,"18":-0.005681232083588839,"19":-2.6693129539489746,"20":2.104079484939575,"21":2.1833553314208984,"22":-0.34762147068977356,"23":0.06807367503643036,"24":0.2813936769962311,"25":-0.20497195422649384,"26":6.209372043609619,"27":0.42092499136924744,"28":0.1915050894021988,"29":1.7416638135910034,"30":-1.204506516456604,"31":2.095799684524536,"32":-0.47617805004119873,"33":0.03505606949329376,"34":1.8117254972457886,"35":2.2768819332122803,"36":0.34911367297172546,"37":-2.29148006439209,"38":0.6974035501480103,"39":0.3789740204811096}},"circular_pitch":{"bias":-0.8079386949539185,"weights":{"0":-0.1324276179075241,"1":-0.10016321390867233,"2":2.2012555599212646,"3":-1.5438165664672852,"4":-1.096369981765747,"5":2.24458909034729,"6":1.7975916862487793,"7":-1.633850336074829,"8":2.590540885925293,"9":3.599231243133545,"10":0.33876463770866394,"11":-2.04518461227417,"12":-0.2578490674495697,"13":3.0054543018341064,"14":0.5840295553207397,"15":-0.39723870158195496,"16":-2.9269661903381348,"17":0.7758299708366394,"18":0.34537702798843384,"19":0.4781408905982971,"20":-1.0554745197296143,"21":1.9965696334838867,"22":2.774223566055298,"23":-2.5925981998443604,"24":-0.7595344185829163,"25":4.177554607391357,"26":-1.5488951206207275,"27":2.6152830123901367,"28":-3.679189920425415,"29":4.158345699310303,"30":0.35181713104248047,"31":-0.547024130821228,"32":-0.906646192073822,"33":-4.788559436798096,"34":1.3336023092269897,"35":-3.5721843242645264,"36":1.153560996055603,"37":-2.815659761428833,"38":-2.172551155090332,"39":0.15619976818561554}},"pitch":{"bias":-0.016972936689853668,"weights":{"0":1.1716480255126953,"1":1.0963830947875977,"2":4.457184791564941,"3":-2.975508451461792,"4":-2.0490431785583496,"5":-1.532735824584961,"6":-0.3840678930282593,"7":2.359076738357544,"8":2.50706148147583,"9":0.8806464672088623,"10":2.64485239982605,"11":1.01579749584198,"12":0.4428253769874573,"13":2.6366095542907715,"14":-0.6598436236381531,"15":-2.7210726737976074,"16":-0.2691184878349304,"17":-1.914452314376831,"18":0.1587940901517868,"19":-0.16362234950065613,"20":0.6372901201248169,"21":3.5156850814819336,"22":2.660764455795288,"23":-1.0057092905044556,"24":-3.8549699783325195,"25":3.405578851699829,"26":-1.1294697523117065,"27":-1.0443607568740845,"28":-2.0717527866363525,"29":2.234387159347534,"30":1.4520174264907837,"31":-1.8014764785766602,"32":2.519138813018799,"33":-4.029971599578857,"34":-0.5547513961791992,"35":-0.6010127067565918,"36":1.1275615692138672,"37":-3.539985418319702,"38":-1.0674717426300049,"39":-0.7779363393783569}},"material":{"bias":0.9672995209693909,"weights":{"0":-1.424025297164917,"1":0.1881880909204483,"2":-2.4243767261505127,"3":2.394169807434082,"4":2.9265449047088623,"5":2.63421368598938,"6":0.19136427342891693,"7":0.2984289526939392,"8":-2.1281814575195312,"9":-1.4312925338745117,"10":-1.4597501754760742,"11":-1.6013187170028687,"12":-0.969372034072876,"13":0.25100934505462646,"14":1.660997986793518,"15":-1.7636239528656006,"16":-2.1715095043182373,"17":-1.3839707374572754,"18":2.959404706954956,"19":3.93684458732605,"20":-2.259805679321289,"21":-0.278736412525177,"22":-0.7006351351737976,"23":1.481214165687561,"24":0.6936171650886536,"25":2.520787477493286,"26":-2.007596015930176,"27":3.0700831413269043,"28":2.1959125995635986,"29":3.125551700592041,"30":-1.9143996238708496,"31":-0.05482976883649826,"32":0.4283135235309601,"33":1.3056060075759888,"34":-0.8318098783493042,"35":1.0413998365402222,"36":-0.19795343279838562,"37":0.15146374702453613,"38":-1.134750485420227,"39":1.0109858512878418}},"tensile_strength":{"bias":-0.6691667437553406,"weights":{"0":2.772702693939209,"1":-2.306621789932251,"2":-3.583047866821289,"3":-2.091905355453491,"4":1.2758711576461792,"5":1.6056326627731323,"6":-1.1628150939941406,"7":-1.0820844173431396,"8":-1.9828234910964966,"9":0.07914716750383377,"10":0.2529103457927704,"11":-2.3549015522003174,"12":0.3849526345729828,"13":0.9399916529655457,"14":2.264615774154663,"15":0.821472704410553,"16":-2.6939282417297363,"17":2.4777348041534424,"18":0.8249881267547607,"19":6.684229373931885,"20":-0.5715776681900024,"21":-1.2138887643814087,"22":-2.5486464500427246,"23":1.6020305156707764,"24":-0.13290156424045563,"25":-0.21516357362270355,"26":-1.7363232374191284,"27":1.8256205320358276,"28":1.5357704162597656,"29":2.206496477127075,"30":0.3898307681083679,"31":-0.5260621905326843,"32":-0.27629610896110535,"33":-0.41626524925231934,"34":-1.4937870502471924,"35":0.46746236085891724,"36":-0.976165235042572,"37":2.4819564819335938,"38":2.350802421569824,"39":-4.862131118774414}},"factor_of_safety":{"bias":-0.5919517278671265,"weights":{"0":0.2938581705093384,"1":-2.4307899475097656,"2":1.28095281124115,"3":2.9829213619232178,"4":0.7036800980567932,"5":1.6019625663757324,"6":-1.684540033340454,"7":2.4327921867370605,"8":-0.545789361000061,"9":-1.0305802822113037,"10":-0.2777177393436432,"11":-4.45972204208374,"12":-1.6365052461624146,"13":-1.1231147050857544,"14":-0.3540927767753601,"15":-1.0847684144973755,"16":-1.629061222076416,"17":0.334896445274353,"18":1.6096078157424927,"19":-0.31448301672935486,"20":0.05547806993126869,"21":-1.5832258462905884,"22":-0.7015461325645447,"23":-0.8003087043762207,"24":1.3741649389266968,"25":3.141822099685669,"26":-1.6213892698287964,"27":2.4698448181152344,"28":-0.7415089011192322,"29":-0.4098777770996094,"30":-0.11005426198244095,"31":-0.8392987251281738,"32":-5.023613929748535,"33":-0.056633152067661285,"34":-0.6927701830863953,"35":-3.371249198913574,"36":1.8862277269363403,"37":1.8099098205566406,"38":1.3461496829986572,"39":2.152430295944214}},"torque":{"bias":-0.4492485225200653,"weights":{"0":1.3792001008987427,"1":-1.1411936283111572,"2":1.0442485809326172,"3":1.7962877750396729,"4":0.508313775062561,"5":-0.8213150501251221,"6":0.349191278219223,"7":1.5481576919555664,"8":0.08130202442407608,"9":-0.4116876721382141,"10":-0.008400894701480865,"11":-0.17789028584957123,"12":-2.531041145324707,"13":2.26810884475708,"14":-0.3738555610179901,"15":-2.019136905670166,"16":-0.6040598750114441,"17":0.22660599648952484,"18":-0.4036322832107544,"19":0.8656896948814392,"20":-1.09529447555542,"21":-4.026013374328613,"22":0.9248279333114624,"23":-0.7152493596076965,"24":1.3188819885253906,"25":1.41093111038208,"26":-1.4759581089019775,"27":-0.7944812178611755,"28":-1.4594498872756958,"29":1.2936755418777466,"30":-0.11463665217161179,"31":-0.8147591352462769,"32":-0.8428521156311035,"33":-2.36706805229187,"34":-0.16823124885559082,"35":-0.048982832580804825,"36":-1.694234013557434,"37":-2.6385579109191895,"38":0.9896603226661682,"39":-1.2427386045455933}},"module":{"bias":-0.4816996455192566,"weights":{"0":1.5951732397079468,"1":2.6667306423187256,"2":-0.27112922072410583,"3":-1.1674606800079346,"4":1.7025749683380127,"5":-1.1628940105438232,"6":0.4314289391040802,"7":0.583337128162384,"8":-3.4627089500427246,"9":3.2210373878479004,"10":-0.8326258063316345,"11":0.5703129768371582,"12":0.01763603836297989,"13":-6.170910358428955,"14":-1.0171526670455933,"15":-0.008880597539246082,"16":-0.983136773109436,"17":2.1691057682037354,"18":-2.932202100753784,"19":-0.3900173008441925,"20":1.848649501800537,"21":-1.8620823621749878,"22":-3.4809467792510986,"23":-3.222917318344116,"24":2.5413243770599365,"25":1.3599821329116821,"26":-1.552610158920288,"27":-4.8433332443237305,"28":0.8053814172744751,"29":-1.9969654083251953,"30":-1.7164071798324585,"31":2.954287052154541,"32":2.1994001865386963,"33":1.6690912246704102,"34":1.8608490228652954,"35":2.11415696144104,"36":-0.9014501571655273,"37":0.9974762201309204,"38":-1.0175881385803223,"39":1.1362485885620117}},"outside_diameter":{"bias":-0.49623963236808777,"weights":{"0":-3.102940559387207,"1":-2.7400925159454346,"2":-1.1845322847366333,"3":0.2136046290397644,"4":-1.4401988983154297,"5":-1.3866685628890991,"6":-1.7320220470428467,"7":-0.8724215030670166,"8":0.5725542902946472,"9":-0.49426567554473877,"10":-1.015089750289917,"11":1.1948708295822144,"12":1.7908779382705688,"13":-0.5331001281738281,"14":-1.2279791831970215,"15":0.49145612120628357,"16":-1.338132619857788,"17":0.9786332845687866,"18":1.7088052034378052,"19":0.19256624579429626,"20":-1.128023386001587,"21":-1.022100567817688,"22":-1.1079412698745728,"23":3.0351626873016357,"24":-2.113722562789917,"25":-1.5611249208450317,"26":1.354783058166504,"27":2.0393471717834473,"28":-0.9201164245605469,"29":-1.0888382196426392,"30":0.35809463262557983,"31":-0.03704928979277611,"32":1.2370777130126953,"33":-0.8598601818084717,"34":0.9862797260284424,"35":-0.07847084850072861,"36":-1.6770970821380615,"37":3.7614567279815674,"38":0.664763867855072,"39":-0.5852342844009399}},"pressure_angle":{"bias":0.028680309653282166,"weights":{"0":1.0552936792373657,"1":0.4729110896587372,"2":-3.088414192199707,"3":-0.02386443316936493,"4":-0.9601539373397827,"5":3.805065155029297,"6":2.956878662109375,"7":-1.017054796218872,"8":-0.4048977792263031,"9":2.2433557510375977,"10":-0.29468902945518494,"11":0.7398149371147156,"12":4.553154945373535,"13":-2.757028579711914,"14":-0.3762929141521454,"15":2.5403575897216797,"16":-2.704054594039917,"17":-0.7627161145210266,"18":-4.297611236572266,"19":-3.566990852355957,"20":2.1331939697265625,"21":-0.875849723815918,"22":-1.1730023622512817,"23":-3.7398362159729004,"24":-0.26717454195022583,"25":-2.330894708633423,"26":3.613975763320923,"27":-1.5089492797851562,"28":-0.2845238149166107,"29":1.2005784511566162,"30":0.8835347890853882,"31":-1.8700337409973145,"32":1.022773027420044,"33":1.1658281087875366,"34":1.555867075920105,"35":-3.191431999206543,"36":-3.549173355102539,"37":1.7276296615600586,"38":2.0298447608947754,"39":1.6621745824813843}},"face_width":{"bias":-0.10756205767393112,"weights":{"0":0.13225384056568146,"1":2.8196234703063965,"2":0.9665524959564209,"3":0.2753630578517914,"4":-1.381170630455017,"5":4.180107593536377,"6":-0.9196028709411621,"7":-0.5721231698989868,"8":0.6910045742988586,"9":-2.020312547683716,"10":-0.6361048817634583,"11":-0.12129868566989899,"12":-1.531526803970337,"13":-2.0205509662628174,"14":1.7257672548294067,"15":-1.3558870553970337,"16":-5.326544284820557,"17":-1.2714167833328247,"18":-1.1497163772583008,"19":-2.8024604320526123,"20":1.8406658172607422,"21":0.7977032661437988,"22":-3.3360135555267334,"23":0.8041201829910278,"24":2.1464529037475586,"25":0.6057189702987671,"26":-2.2347803115844727,"27":-2.9948654174804688,"28":5.102653980255127,"29":-0.0044841282069683075,"30":-2.0058157444000244,"31":-1.3894442319869995,"32":1.765259027481079,"33":2.222949981689453,"34":1.7724568843841553,"35":2.0362794399261475,"36":-0.5112091898918152,"37":1.0292010307312012,"38":-3.4940943717956543,"39":-3.6109561920166016}},"tangible_load":{"bias":-0.5832536816596985,"weights":{"0":-0.5442494750022888,"1":0.681210994720459,"2":-0.1439441442489624,"3":-1.6232434511184692,"4":-1.2867988348007202,"5":-1.5514366626739502,"6":-0.8327476382255554,"7":0.041786931455135345,"8":-1.1772617101669312,"9":-0.32135099172592163,"10":0.3836798071861267,"11":0.527032196521759,"12":-1.0815891027450562,"13":-0.5783594846725464,"14":-0.9214655756950378,"15":0.28822946548461914,"16":-1.4823983907699585,"17":0.6856826543807983,"18":0.8564160466194153,"19":1.2217034101486206,"20":-1.9192842245101929,"21":-0.10328687727451324,"22":-2.9253265857696533,"23":-0.8838033080101013,"24":-1.0021333694458008,"25":0.36815008521080017,"26":-2.366873264312744,"27":-0.948191225528717,"28":1.40714693069458,"29":0.22035332024097443,"30":-0.08066949248313904,"31":-0.891266405582428,"32":0.8834421038627625,"33":-0.27956804633140564,"34":0.995346188545227,"35":0.48034965991973877,"36":-0.40503251552581787,"37":-0.08879847079515457,"38":-0.2527637481689453,"39":-1.4536348581314087}},"pitch_diameter":{"bias":-0.07611244916915894,"weights":{"0":0.377799928188324,"1":0.8381277322769165,"2":2.055534839630127,"3":-1.1770843267440796,"4":-1.5205293893814087,"5":-3.775245189666748,"6":-1.4292340278625488,"7":3.8026864528656006,"8":0.6453971266746521,"9":-1.8350032567977905,"10":3.1792850494384766,"11":2.330329418182373,"12":0.5669335126876831,"13":1.6406108140945435,"14":-1.0242140293121338,"15":-1.9119691848754883,"16":2.0607268810272217,"17":-3.5277483463287354,"18":-0.028004024177789688,"19":3.0796875953674316,"20":0.9130250215530396,"21":1.1281111240386963,"22":0.5169047117233276,"23":-0.6654143333435059,"24":-2.9376068115234375,"25":-0.35185548663139343,"26":-0.8677918910980225,"27":-2.9031617641448975,"28":-1.577293872833252,"29":-0.14614936709403992,"30":-1.3835192918777466,"31":-2.0602543354034424,"32":3.7728374004364014,"33":-2.3673949241638184,"34":-1.5888831615447998,"35":3.599712371826172,"36":-0.36772191524505615,"37":-4.3466339111328125,"38":2.459552526473999,"39":-1.784622073173523}},"clearance":{"bias":-0.5838072896003723,"weights":{"0":-0.20645710825920105,"1":-1.7188539505004883,"2":0.4856289327144623,"3":2.2785794734954834,"4":-0.6849627494812012,"5":0.6164839267730713,"6":-2.826171636581421,"7":0.40374067425727844,"8":2.516749382019043,"9":-1.0139106512069702,"10":3.136883020401001,"11":1.6525310277938843,"12":-2.034820318222046,"13":5.0477166175842285,"14":-2.948575735092163,"15":-0.8147344589233398,"16":2.296605110168457,"17":0.23380634188652039,"18":0.40565189719200134,"19":1.7838940620422363,"20":-3.069499969482422,"21":-0.6055163741111755,"22":2.315398693084717,"23":-0.37817227840423584,"24":-4.553658962249756,"25":-2.097170352935791,"26":0.4978793263435364,"27":2.1528525352478027,"28":-1.548592209815979,"29":-1.0096105337142944,"30":-4.265866756439209,"31":2.326673746109009,"32":2.8589718341827393,"33":0.12909922003746033,"34":0.27013522386550903,"35":0.18977627158164978,"36":0.9248540997505188,"37":-0.35159221291542053,"38":-0.03440483286976814,"39":-3.667299509048462}},"allowable_stress":{"bias":-0.3120858669281006,"weights":{"0":-4.239475250244141,"1":1.8407468795776367,"2":0.7011575698852539,"3":4.395699501037598,"4":1.185381531715393,"5":0.6784006357192993,"6":0.001285415142774582,"7":0.7011170983314514,"8":0.14913876354694366,"9":-1.5845661163330078,"10":-0.8556832075119019,"11":0.4720216691493988,"12":-2.626164197921753,"13":-0.4447006285190582,"14":-0.738879919052124,"15":-2.809303045272827,"16":-0.37877291440963745,"17":-3.904902935028076,"18":2.035292387008667,"19":-1.6709924936294556,"20":-0.4805496037006378,"21":0.5693320035934448,"22":0.9583598971366882,"23":0.117120161652565,"24":0.8702808022499084,"25":2.2264187335968018,"26":0.16652831435203552,"27":1.3056632280349731,"28":0.813201367855072,"29":2.036011219024658,"30":-4.064392566680908,"31":0.17380335927009583,"32":0.20081974565982819,"33":0.04750561714172363,"34":-0.2270655333995819,"35":1.0253132581710815,"36":0.41642770171165466,"37":-1.9902268648147583,"38":-1.9630910158157349,"39":4.313177108764648}},"stress":{"bias":-0.12283769994974136,"weights":{"0":-4.256222248077393,"1":1.8555809259414673,"2":0.6883223652839661,"3":4.366997241973877,"4":1.1613616943359375,"5":0.6800017356872559,"6":-0.037433922290802,"7":0.6966681480407715,"8":0.16870926320552826,"9":-1.6254825592041016,"10":-0.8556366562843323,"11":0.4724515676498413,"12":-2.6384177207946777,"13":-0.4631131589412689,"14":-0.7563708424568176,"15":-2.8242030143737793,"16":-0.3561771810054779,"17":-3.9108970165252686,"18":2.0416252613067627,"19":-1.6455575227737427,"20":-0.48461681604385376,"21":0.5500146746635437,"22":0.9716104865074158,"23":0.08830764144659042,"24":0.8702942132949829,"25":2.228433847427368,"26":0.17541904747486115,"27":1.28628671169281,"28":0.7969851493835449,"29":2.0139784812927246,"30":-4.061026573181152,"31":0.19763441383838654,"32":0.17121364176273346,"33":0.031621504575014114,"34":-0.22743649780750275,"35":1.0328116416931152,"36":0.4001750946044922,"37":-2.0030038356781006,"38":-2.002845287322998,"39":4.302496433258057}},"dedendum":{"bias":-0.47868025302886963,"weights":{"0":-2.8198580741882324,"1":-0.13836808502674103,"2":-1.90083646774292,"3":0.7762933969497681,"4":1.4866414070129395,"5":0.1816568225622177,"6":0.7425282001495361,"7":-0.24594534933567047,"8":-1.0751384496688843,"9":-0.6052007079124451,"10":0.4741852581501007,"11":0.20963437855243683,"12":0.18822062015533447,"13":-1.6235697269439697,"14":0.22193829715251923,"15":-0.7985068559646606,"16":2.6212728023529053,"17":-1.3216779232025146,"18":-2.388339042663574,"19":-0.7948198318481445,"20":0.015119986608624458,